svm_type c_svc
kernel_type linear
nr_class 32
total_sv 918
rho -0.034376200691482284 0.4946408470314052 0.4559017500250811 -0.17720548178474513 0.7871673907569708 0.18382140839012162 0.6128241519282527 0.35630705633882226 0.050599408599503126 0.33680448541178276 0.41956523092933334 1.217457802067291 0.17878560289333387 -0.22969052532264003 0.8567809851254303 0.5810130686331961 -0.0067935524081808455 0.5064185910138287 0.3705399273322472 -0.0618609594122349 0.8376769307259945 0.8710671400403392 0.22125415166872653 -0.17365062526644665 0.14791372656402293 -0.4562767693187225 0.023611514785297768 -0.43043976966080577 0.05241983332815247 -0.6446366214693164 -0.7648756041302432 1.223572087755325 1.2886233911684382 0.5471131508765955 1.3257515474163075 1.1913572597326947 1.5256301733240893 0.7065902978967564 0.22433704077854144 0.278084098809244 0.5594553283520494 1.081671122154767 1.3365859352014857 0.1971691207494661 1.169296868983843 1.5331484423845945 0.1896388629222464 1.206127014769576 0.5496323928333811 0.2643308284046165 0.63392875250263 1.1913564070799454 0.8065963915693167 0.6643560320507244 1.017290067022538 -0.14081822133757063 0.626448559072468 -0.05866228150398785 0.3369186855215277 0.5913563481578716 -0.33127487268104433 -0.8927374512781704 -0.9679853941880804 0.13382247465935002 -0.8373161941531976 -0.6379529660431063 -0.5356328564463848 -0.4909059456167078 -0.5076398803747935 -0.4077220873672251 -0.19719673499471593 -0.6083232991186994 -1.031272855532335 -0.12510135881310488 -0.4321181816862458 -1.1020752860321945 -0.3500987454535949 -0.44665572067314424 -0.6953543692585976 -0.4071352051893689 -0.10650537903901638 -0.8488647621787881 -0.559757684767665 -0.4782422494941398 -0.6485357110087312 -0.8147866048039292 -1.4249539779090572 -0.5473035272824796 -1.4175552157445082 -1.0877571618418294 -0.9265372479566693 0.974794973218085 -0.5789145234597523 0.19182377816069512 -0.011714744161143674 -0.14583927098653388 -0.3249365823912874 -0.2359901219549661 0.32976816662076636 -0.08656966309433754 -0.6063194115808977 0.17231252957633683 0.19639292808212963 -0.3707365120089197 1.0805398319070483 0.08549393432079014 -0.5348611871333993 0.15272667322570077 0.8111005116087316 0.15888167861816493 0.01718363934359827 0.0023981427746133663 -0.9610044145562305 -0.5777671014306491 -1.7140627965883741 -0.13591377955010656 -1.9214878503756183 -1.7775942032854064 1.3871222701247994 0.23846701170011217 0.7252235379552968 0.3033051513540754 -0.22374448708837144 0.2954896363157582 0.2394487697755357 0.8370372477785273 0.5327013088877645 -0.21743865759331152 1.1137854876693387 0.46152783886614235 -0.09602786138511421 0.7894931887801253 0.3210388155218067 0.0073411660906653855 0.36885356942669206 1.1678223859692392 0.30145124422208314 0.13299702946901493 0.23340461930978715 -0.7449430692478567 -0.26624383065992724 -1.0347800396434232 -0.016815369481186487 -1.098620077486361 -0.8818402494326806 -0.9377405333244978 -0.8608643999399592 -1.0130047494051813 -1.007269516279992 -0.8694827691564155 -0.9594904983407975 -0.6566746246130835 -0.6617380572391567 -0.8170473695804871 -0.3314700329031821 -0.6419231283505944 -0.9155777772015781 -0.6926750924577707 -0.806156937191929 -0.8372310963293995 -0.4362279136052388 0.030333452744907875 -0.5249375957744786 -0.6468942315621043 -0.5583537143675069 -1.0135174329360885 -0.9848096852635236 -1.4057754335144106 -1.0155087837284344 -1.5269876208829365 -1.2628648847257704 0.3361021077324305 0.16829241118112745 0.02150431511022831 -0.1230320883545601 0.17505841963712876 0.4162441698742915 0.26307433007143444 -0.32042276061495056 0.06829269062130354 0.20653137716334316 -0.19822670413085539 0.8042971205473161 0.26324334621102674 -0.08196247019823151 0.2639928301957485 0.9124922032916913 0.425005631041003 0.05019197742270528 0.030195670290375065 -0.5479428810330134 -0.1338458800318521 -1.3403634303948506 0.012664972229143914 -1.928836563556585 -1.4844416633266273 0.07481889647802524 -0.15400512517115697 -0.39732791068057427 -0.771849720261107 0.011408911422596708 0.13820086291830058 -0.45581671231219056 0.4922934397261079 0.10339400414170984 -0.3448326785622701 0.38162910171437553 0.08928942612853621 -0.9668465460035428 0.43894839741555686 1.099072602088287 0.0024522908433614312 -0.11655232250527195 -0.1721936115620464 -0.9317895439387668 -0.8115268899424993 -1.3925621420879102 -0.2763084915234896 -2.066248307147431 -1.5394386152509232 -0.66777146281992 -0.04190326003949903 -0.23949586566579065 0.29335306837358543 -0.3910191391940738 -0.4873785108455628 1.5196539389085604 0.01242343916069134 -0.4802678251165921 0.37117066619463895 0.754262199699285 -0.3332820958102293 0.6166311829690146 1.4023541284655257 0.024397887240011733 -0.3900875030056769 -0.018325588872938045 -0.6006747860635288 -0.4743855350880216 -0.9368042575966219 -0.3932567864631841 -1.224136461570554 -1.2762518331792967 0.05103404120204647 0.08949838865499898 0.4741903453328256 0.1378983979579534 -0.3179934331505587 0.9748510072496245 0.2158266866558335 0.09068912310631314 0.35485295964325103 0.5889626549758431 0.09499586057220223 0.630851538929211 1.2024871211341692 0.23612800562665157 -0.17061587929321245 -0.1547031940906497 -0.5964294677425557 -0.24240916382992736 -0.38679539742366487 -0.2843226680537152 -0.5228781810073665 -0.7058861841948397 -0.06395917226763873 -0.08404376444843023 0.37386243488553156 -0.20918188168226842 0.6860101370231241 0.3849462918483593 -0.2456622943495935 0.33451311761957225 0.27857243673538196 -0.05630690122378795 0.5673334546543066 1.0459226595192193 0.2781844820807195 0.07493735837006549 0.14347825749983778 -0.6711390414644484 -0.4160665275243721 -0.6057702593640814 -0.21373852400667245 -0.8120679613307776 -0.869304113201828 0.7687708303425949 0.2831790978175951 -0.6708191428145929 1.1115525047451789 0.26145396304098717 -0.19052205359724236 0.5269425190046763 0.09661497942118104 -0.34027047699207813 0.5477966566583683 0.8300017187996962 0.15907394221547735 0.04528885153181437 0.08509001546691142 -0.5115940584505521 -0.16744550318660067 -0.5326118164595393 0.11914215050324203 -0.8234875553347336 -0.6491535683324041 -0.4027541717543292 -0.8170332476461325 0.5095595405194457 -0.16293642287146742 -0.43999661962411174 -0.10969795972048042 -0.3240336543992649 -0.8670540507790808 0.18732847376549405 0.4090732511790583 -0.3489683264681776 -0.29108710305981755 -0.1723641333603647 -0.9058184096131006 -0.6906315857151547 -1.0122994455537075 -0.18175646952247118 -1.0803754082895147 -1.0472675328460515 -0.4738408258334622 0.28019863365623804 0.49232236448407857 -0.27207332013824476 0.6296314404335758 0.37523888303708774 -0.09909457749068562 0.3571762520643281 0.9371967375971941 0.17142282099476783 0.08638583202624707 0.09705332477373786 -0.4634491801340328 -0.29299899636904314 -0.8417608852859836 -0.06024297610513001 -1.3721055241586062 -1.4023718938067675 0.4219543713064823 0.6334820302161204 -0.038753783055956066 0.8190108125847034 0.49623425577764285 0.34250166431930784 0.49202760837457926 0.8779378472226648 0.524535264432453 0.28965022356302983 0.26805288408767625 -0.28439940521599394 0.17092389533559088 -0.6715917205749207 0.18729520285716994 -0.8068692505201595 -0.6529156256939285 0.13205952914530014 -1.21574418326008 -0.07627586424355062 -0.33604499112654074 -0.7123240069902493 -0.09698254379680749 0.35162943945909125 -0.37639320718155284 -0.05395783624713321 0.03360570639244823 -0.7246788492743802 -0.5869315788974409 -1.1595010871469085 -0.512858445882661 -1.081358347810719 -1.019804824998348 -0.5309762344340964 -0.07506827583959513 -0.11302838087489782 -0.6221044130508958 0.25015380600232645 0.8312145968852671 -0.1903504438764271 -0.26790465453122436 -0.2240370495366249 -0.9290737769041689 -1.2622732518200597 -1.276365722701549 -0.2130683791107342 -1.9871609199001845 -1.673316559060046 0.5553419063631272 0.5296111651375659 0.11464426431082685 0.7120138747596501 1.2505431597787113 0.9367094562662653 0.03544447927456543 0.2487136649214078 -0.32062207539591336 -0.08810590207140956 -0.5718406821311345 -0.2768823626847431 -0.631541908064884 -0.7076161201467006 -0.4170401085161631 -0.5486333667393836 -0.16394947919773076 0.30324140555674106 -0.1756607960408556 -0.2683258210390933 -0.14709475916875037 -0.6220541988341252 -0.57197657550264 -1.1401914120604426 -0.25674998003701466 -1.3984356441990542 -1.0591184690963846 -0.3434208670462886 0.05926802887381623 1.1340504054019096 -0.01202121630132978 -0.23698254543664604 -0.126394661027009 -0.949699127113498 -0.4716844701354165 -0.9009804761953037 -0.17601857370792331 -1.017622614737551 -1.354770316663871 0.39563155180961634 1.0017107873669135 0.31310184644182765 0.20851478241624163 0.18640860347423613 -0.382597235379829 0.18397782238361274 -0.38808097809489056 0.08478170302827603 -0.5990879977335241 -0.9140675590649177 0.6931618785030117 -0.5759861523501738 -0.6592279444204777 -0.38795600740676495 -0.9489307681929204 -0.5378074899035634 -1.2128643158228762 -0.6198178258573703 -1.0150646074684109 -1.1195604808866746 -0.6552656762035557 -0.7458836695661024 -0.762697839372562 -0.9950308338984701 -1.1564538797652382 -1.547549349024176 -1.1006533364692606 -1.6420716548257805 -1.6237574856409966 -0.9826477001934791 -0.28871528179174927 -0.661291384866896 -0.48440934854192347 -0.9681467244659577 -0.400435486275895 -1.2275367035189395 -1.175559142922808 0.2543510946212934 -0.24435541784436593 -0.18855513568844884 -0.5208475310975496 -0.06807386716457459 -1.0780552543972173 -0.7265553767292664 -0.2972834762206914 -0.5072402524969503 -0.6954074448101523 -0.33160687920143883 -1.4646833779034492 -0.9671183501747183 0.4990056569043655 -0.022915852474576497 0.20398384005357495 -0.2999340793385128 -0.39853014487802085 -1.1735287184330807 0.09590737473577324 -1.0091013244479687 -0.9411735256284952 0.3446516976601535 -0.7150997285635166 -0.47609289419838396 -0.5428598516958575 -0.6192114653173679 0.023486492466836324
label 10 11 12 13 14 15 16 17 18 19 20 21 22 23 24 25 26 27 28 29 30 31 32 33 2 3 4 5 6 7 8 9
nr_sv 34 36 25 39 32 32 42 49 22 24 32 36 31 35 30 34 26 27 28 25 37 27 30 25 11 25 23 24 22 17 21 17
SV
0.022618589974551465 0.0 0.016314168737958764 0.01680376758002068 0.0 0.015590311071530681 0.02323402946933074 0.010795324168400261 0.00608753054228767 0.012718332600022487 0.028928621516000643 0.05317451416999691 0.02375870371026877 0.017572881433910132 0.013892354509846815 0.03918806679211128 0.0 0.028570230854204338 0.011720860584741968 0.010935402969949368 0.01867037599400224 0.006461964853957981 0.01851334471021086 0.0 0.0032776218639248744 0.008376732213786642 0.01776304769204922 0.013817432881728303 0.0 0.01003633893421087 0.0033930243976959483 1:0.0 2:0.0 3:0.0 4:0.0 5:0.0 6:0.0 7:0.0 8:0.0 9:0.0 10:0.0 11:0.0 12:0.0 13:0.0 14:0.0 15:0.0 16:0.0 17:0.0 18:0.0 19:0.0 20:0.0 21:0.0 22:0.0 23:0.0 24:0.0 25:0.0 26:0.0 27:0.0 28:0.0 29:0.0 30:0.0 31:0.0 32:0.0 33:0.0 34:0.0 35:0.0 36:0.0 37:0.0 38:0.0 39:0.0 40:0.0 41:0.0 42:0.0 43:0.0 44:0.0 45:0.0 46:0.0 47:0.0 48:0.0 49:0.0 50:0.0 51:0.0 52:1.0 53:1.0 54:1.0 55:1.0 56:1.0 57:1.0 58:1.0 59:1.0 60:1.0 61:1.0 62:1.0 63:0.0 64:0.0 65:0.0 66:1.0 67:1.0 68:1.0 69:1.0 70:1.0 71:1.0 72:1.0 73:1.0 74:1.0 75:1.0 76:1.0 77:1.0 78:1.0 79:1.0 80:0.0 81:0.0 82:1.0 83:1.0 84:1.0 85:1.0 86:1.0 87:1.0 88:1.0 89:1.0 90:1.0 91:1.0 92:1.0 93:1.0 94:1.0 95:1.0 96:0.0 97:0.0 98:0.0 99:0.0 100:0.0 101:0.0 102:0.0 103:0.0 104:1.0 105:1.0 106:1.0 107:1.0 108:1.0 109:1.0 110:1.0 111:1.0 112:0.0 113:0.0 114:0.0 115:0.0 116:0.0 117:0.0 118:1.0 119:1.0 120:1.0 121:1.0 122:1.0 123:1.0 124:1.0 125:1.0 126:1.0 127:1.0 128:0.0 129:1.0 130:1.0 131:1.0 132:1.0 133:1.0 134:1.0 135:1.0 136:1.0 137:1.0 138:1.0 139:1.0 140:1.0 141:1.0 142:1.0 143:0.0 144:0.0 145:1.0 146:1.0 147:1.0 148:1.0 149:1.0 150:0.0 151:0.0 152:1.0 153:1.0 154:1.0 155:1.0 156:1.0 157:1.0 158:1.0 159:0.0 160:0.0 161:1.0 162:1.0 163:1.0 164:0.0 165:0.0 166:0.0 167:0.0 168:0.0 169:1.0 170:1.0 171:1.0 172:1.0 173:1.0 174:1.0 175:0.0 176:0.0 177:1.0 178:1.0 179:1.0 180:1.0 181:0.0 182:0.0 183:0.0 184:1.0 185:1.0 186:1.0 187:1.0 188:1.0 189:1.0 190:1.0 191:0.0 192:0.0 193:1.0 194:1.0 195:1.0 196:1.0 197:1.0 198:1.0 199:1.0 200:1.0 201:1.0 202:1.0 203:1.0 204:1.0 205:1.0 206:0.0 207:0.0 208:0.0 209:0.0 210:0.0 211:0.0 212:0.0 213:0.0 214:0.0 215:0.0 216:0.0 217:0.0 218:0.0 219:0.0 220:0.0 221:0.0 222:0.0 223:0.0 224:0.0 225:0.0 226:0.0 227:0.0 228:0.0 229:0.0 230:0.0 231:0.0 232:0.0 233:0.0 234:0.0 235:0.0 236:0.0 237:0.0 238:0.0 239:0.0 240:0.0 241:0.0 242:0.0 243:0.0 244:0.0 245:0.0 246:0.0 247:0.0 248:0.0 249:0.0 250:0.0 251:0.0 252:0.0 253:0.0 254:0.0 255:0.0 256:0.0 
0.0 0.0 0.0 0.0 0.0 0.0 0.0 0.0 0.0 0.0 0.0 0.0021250956074655783 0.0 0.0 0.0 0.0 0.0 0.0 0.0 0.0 0.0 0.0 0.0 0.0 0.0 0.0 0.0 0.0 0.0 0.0 0.0 1:0.0 2:0.0 3:0.0 4:0.0 5:0.0 6:0.0 7:0.0 8:0.0 9:1.0 10:1.0 11:1.0 12:1.0 13:0.0 14:0.0 15:0.0 16:0.0 17:0.0 18:0.0 19:0.0 20:0.0 21:0.0 22:0.0 23:0.0 24:1.0 25:1.0 26:1.0 27:1.0 28:1.0 29:1.0 30:0.0 31:0.0 32:0.0 33:0.0 34:0.0 35:0.0 36:0.0 37:0.0 38:0.0 39:1.0 40:1.0 41:1.0 42:1.0 43:1.0 44:1.0 45:1.0 46:1.0 47:0.0 48:0.0 49:0.0 50:0.0 51:0.0 52:0.0 53:0.0 54:1.0 55:1.0 56:1.0 57:1.0 58:1.0 59:1.0 60:1.0 61:1.0 62:1.0 63:0.0 64:0.0 65:0.0 66:0.0 67:0.0 68:0.0 69:1.0 70:1.0 71:1.0 72:1.0 73:1.0 74:1.0 75:1.0 76:1.0 77:1.0 78:1.0 79:0.0 80:0.0 81:0.0 82:0.0 83:0.0 84:0.0 85:1.0 86:1.0 87:1.0 88:1.0 89:1.0 90:0.0 91:0.0 92:1.0 93:1.0 94:1.0 95:0.0 96:0.0 97:0.0 98:0.0 99:0.0 100:1.0 101:1.0 102:1.0 103:1.0 104:0.0 105:0.0 106:0.0 107:0.0 108:1.0 109:1.0 110:1.0 111:1.0 112:0.0 113:0.0 114:0.0 115:1.0 116:1.0 117:1.0 118:1.0 119:1.0 120:0.0 121:0.0 122:0.0 123:0.0 124:1.0 125:1.0 126:1.0 127:1.0 128:0.0 129:0.0 130:1.0 131:1.0 132:1.0 133:1.0 134:1.0 135:1.0 136:1.0 137:1.0 138:1.0 139:1.0 140:1.0 141:1.0 142:1.0 143:1.0 144:0.0 145:0.0 146:1.0 147:1.0 148:1.0 149:1.0 150:1.0 151:1.0 152:1.0 153:1.0 154:1.0 155:1.0 156:1.0 157:1.0 158:1.0 159:1.0 160:0.0 161:1.0 162:1.0 163:1.0 164:1.0 165:1.0 166:1.0 167:1.0 168:1.0 169:1.0 170:1.0 171:1.0 172:1.0 173:1.0 174:1.0 175:1.0 176:0.0 177:1.0 178:1.0 179:1.0 180:1.0 181:1.0 182:0.0 183:0.0 184:0.0 185:0.0 186:0.0 187:0.0 188:1.0 189:1.0 190:1.0 191:1.0 192:1.0 193:1.0 194:1.0 195:1.0 196:1.0 197:0.0 198:0.0 199:0.0 200:0.0 201:0.0 202:0.0 203:0.0 204:0.0 205:1.0 206:1.0 207:1.0 208:1.0 209:0.0 210:0.0 211:0.0 212:0.0 213:0.0 214:0.0 215:0.0 216:0.0 217:0.0 218:0.0 219:0.0 220:0.0 221:0.0 222:0.0 223:0.0 224:0.0 225:0.0 226:0.0 227:0.0 228:0.0 229:0.0 230:0.0 231:0.0 232:0.0 233:0.0 234:0.0 235:0.0 236:0.0 237:0.0 238:0.0 239:0.0 240:0.0 241:0.0 242:0.0 243:0.0 244:0.0 245:0.0 246:0.0 247:0.0 248:0.0 249:0.0 250:0.0 251:0.0 252:0.0 253:0.0 254:0.0 255:0.0 256:0.0 
0.0 0.0 0.0 0.0 0.007617162713057221 0.0 0.0 0.017564376273108532 0.00486293605725873 0.0 0.0 0.0 0.0 0.0 0.0 0.0 0.0 0.0 0.0 0.0 0.0 0.0 0.0 0.0 0.004808975425014301 0.0 0.0 0.0 0.00873529986285598 0.0 0.004028813740921925 1:0.0 2:0.0 3:0.0 4:0.0 5:0.0 6:0.0 7:0.0 8:0.0 9:1.0 10:1.0 11:1.0 12:1.0 13:1.0 14:0.0 15:0.0 16:0.0 17:0.0 18:0.0 19:0.0 20:0.0 21:0.0 22:0.0 23:0.0 24:0.0 25:1.0 26:1.0 27:1.0 28:1.0 29:1.0 30:1.0 31:0.0 32:0.0 33:0.0 34:0.0 35:0.0 36:0.0 37:0.0 38:0.0 39:0.0 40:1.0 41:1.0 42:1.0 43:1.0 44:1.0 45:1.0 46:1.0 47:0.0 48:0.0 49:0.0 50:0.0 51:0.0 52:0.0 53:0.0 54:0.0 55:1.0 56:1.0 57:1.0 58:1.0 59:1.0 60:1.0 61:1.0 62:1.0 63:0.0 64:0.0 65:0.0 66:0.0 67:0.0 68:0.0 69:0.0 70:0.0 71:1.0 72:1.0 73:1.0 74:1.0 75:1.0 76:1.0 77:1.0 78:1.0 79:0.0 80:0.0 81:0.0 82:0.0 83:0.0 84:0.0 85:0.0 86:1.0 87:1.0 88:1.0 89:1.0 90:1.0 91:0.0 92:1.0 93:1.0 94:1.0 95:0.0 96:0.0 97:0.0 98:0.0 99:0.0 100:0.0 101:1.0 102:1.0 103:1.0 104:1.0 105:0.0 106:0.0 107:0.0 108:1.0 109:1.0 110:1.0 111:1.0 112:0.0 113:0.0 114:0.0 115:0.0 116:1.0 117:1.0 118:1.0 119:1.0 120:1.0 121:0.0 122:0.0 123:0.0 124:1.0 125:1.0 126:1.0 127:1.0 128:0.0 129:0.0 130:0.0 131:1.0 132:1.0 133:1.0 134:1.0 135:1.0 136:1.0 137:1.0 138:1.0 139:1.0 140:1.0 141:1.0 142:1.0 143:1.0 144:0.0 145:0.0 146:0.0 147:1.0 148:1.0 149:1.0 150:1.0 151:1.0 152:1.0 153:1.0 154:1.0 155:1.0 156:1.0 157:1.0 158:1.0 159:1.0 160:0.0 161:0.0 162:0.0 163:1.0 164:1.0 165:1.0 166:1.0 167:1.0 168:1.0 169:1.0 170:1.0 171:1.0 172:1.0 173:1.0 174:1.0 175:1.0 176:0.0 177:0.0 178:1.0 179:1.0 180:1.0 181:1.0 182:1.0 183:0.0 184:0.0 185:0.0 186:0.0 187:0.0 188:1.0 189:1.0 190:1.0 191:1.0 192:1.0 193:1.0 194:1.0 195:1.0 196:1.0 197:1.0 198:0.0 199:0.0 200:0.0 201:0.0 202:0.0 203:0.0 204:0.0 205:1.0 206:1.0 207:1.0 208:1.0 209:0.0 210:0.0 211:0.0 212:0.0 213:0.0 214:0.0 215:0.0 216:0.0 217:0.0 218:0.0 219:0.0 220:0.0 221:0.0 222:0.0 223:0.0 224:0.0 225:0.0 226:0.0 227:0.0 228:0.0 229:0.0 230:0.0 231:0.0 232:0.0 233:0.0 234:0.0 235:0.0 236:0.0 237:0.0 238:0.0 239:0.0 240:0.0 241:0.0 242:0.0 243:0.0 244:0.0 245:0.0 246:0.0 247:0.0 248:0.0 249:0.0 250:0.0 251:0.0 252:0.0 253:0.0 254:0.0 255:0.0 256:0.0 
0.0 0.0 0.0 0.0 0.0 0.0 0.003557824543711636 0.0 0.0 0.0 0.0 0.0 0.0 0.0 0.0 0.0 0.0 0.0 0.0 0.0 0.0 0.0 0.0 0.0 0.0 0.0 0.0 0.0 0.0 0.0 0.0 1:0.0 2:0.0 3:0.0 4:0.0 5:0.0 6:0.0 7:0.0 8:0.0 9:1.0 10:1.0 11:1.0 12:1.0 13:0.0 14:0.0 15:0.0 16:0.0 17:0.0 18:0.0 19:0.0 20:0.0 21:0.0 22:0.0 23:1.0 24:1.0 25:1.0 26:1.0 27:1.0 28:1.0 29:1.0 30:0.0 31:0.0 32:0.0 33:0.0 34:0.0 35:0.0 36:0.0 37:0.0 38:0.0 39:1.0 40:1.0 41:1.0 42:1.0 43:1.0 44:1.0 45:1.0 46:1.0 47:0.0 48:0.0 49:0.0 50:0.0 51:0.0 52:0.0 53:0.0 54:1.0 55:1.0 56:1.0 57:1.0 58:1.0 59:1.0 60:1.0 61:1.0 62:1.0 63:0.0 64:0.0 65:0.0 66:0.0 67:0.0 68:0.0 69:1.0 70:1.0 71:1.0 72:1.0 73:1.0 74:1.0 75:1.0 76:1.0 77:1.0 78:1.0 79:0.0 80:0.0 81:0.0 82:0.0 83:0.0 84:0.0 85:1.0 86:1.0 87:1.0 88:1.0 89:1.0 90:0.0 91:0.0 92:1.0 93:1.0 94:1.0 95:0.0 96:0.0 97:0.0 98:0.0 99:0.0 100:1.0 101:1.0 102:1.0 103:1.0 104:0.0 105:0.0 106:0.0 107:0.0 108:1.0 109:1.0 110:1.0 111:1.0 112:0.0 113:0.0 114:0.0 115:1.0 116:1.0 117:1.0 118:1.0 119:1.0 120:0.0 121:0.0 122:0.0 123:0.0 124:1.0 125:1.0 126:1.0 127:1.0 128:0.0 129:0.0 130:1.0 131:1.0 132:1.0 133:1.0 134:1.0 135:1.0 136:1.0 137:1.0 138:1.0 139:1.0 140:1.0 141:1.0 142:1.0 143:1.0 144:0.0 145:0.0 146:1.0 147:1.0 148:1.0 149:1.0 150:1.0 151:1.0 152:1.0 153:1.0 154:1.0 155:1.0 156:1.0 157:1.0 158:1.0 159:1.0 160:0.0 161:1.0 162:1.0 163:1.0 164:1.0 165:1.0 166:1.0 167:1.0 168:1.0 169:1.0 170:1.0 171:1.0 172:1.0 173:1.0 174:1.0 175:1.0 176:0.0 177:1.0 178:1.0 179:1.0 180:1.0 181:0.0 182:0.0 183:0.0 184:0.0 185:0.0 186:0.0 187:0.0 188:1.0 189:1.0 190:1.0 191:1.0 192:1.0 193:1.0 194:1.0 195:1.0 196:1.0 197:0.0 198:0.0 199:0.0 200:0.0 201:0.0 202:0.0 203:0.0 204:0.0 205:1.0 206:1.0 207:1.0 208:1.0 209:0.0 210:0.0 211:0.0 212:0.0 213:0.0 214:0.0 215:0.0 216:0.0 217:0.0 218:0.0 219:0.0 220:0.0 221:0.0 222:0.0 223:0.0 224:0.0 225:0.0 226:0.0 227:0.0 228:0.0 229:0.0 230:0.0 231:0.0 232:0.0 233:0.0 234:0.0 235:0.0 236:0.0 237:0.0 238:0.0 239:0.0 240:0.0 241:0.0 242:0.0 243:0.0 244:0.0 245:0.0 246:0.0 247:0.0 248:0.0 249:0.0 250:0.0 251:0.0 252:0.0 253:0.0 254:0.0 255:0.0 256:0.0 
0.0 0.0 0.0 0.0 0.0 0.0 0.0 0.0 0.0 0.0 0.0 0.0 0.0 0.0 0.0 0.0 0.001589334528968566 0.0 0.0 0.0 0.0 0.0 0.0 0.0 0.0 0.0 0.0 0.0 0.0 0.0 0.0 1:0.0 2:0.0 3:0.0 4:0.0 5:0.0 6:0.0 7:0.0 8:0.0 9:0.0 10:0.0 11:0.0 12:0.0 13:0.0 14:0.0 15:0.0 16:0.0 17:0.0 18:0.0 19:0.0 20:0.0 21:0.0 22:0.0 23:0.0 24:0.0 25:0.0 26:0.0 27:0.0 28:0.0 29:0.0 30:0.0 31:0.0 32:0.0 33:0.0 34:0.0 35:0.0 36:0.0 37:0.0 38:0.0 39:0.0 40:0.0 41:0.0 42:0.0 43:0.0 44:0.0 45:0.0 46:0.0 47:0.0 48:0.0 49:0.0 50:0.0 51:0.0 52:0.0 53:1.0 54:1.0 55:1.0 56:1.0 57:1.0 58:1.0 59:1.0 60:1.0 61:1.0 62:0.0 63:0.0 64:0.0 65:0.0 66:0.0 67:0.0 68:1.0 69:1.0 70:1.0 71:1.0 72:1.0 73:1.0 74:1.0 75:1.0 76:1.0 77:1.0 78:1.0 79:1.0 80:1.0 81:0.0 82:0.0 83:0.0 84:0.0 85:0.0 86:0.0 87:0.0 88:0.0 89:0.0 90:0.0 91:0.0 92:1.0 93:1.0 94:1.0 95:1.0 96:1.0 97:0.0 98:0.0 99:0.0 100:0.0 101:0.0 102:0.0 103:0.0 104:0.0 105:0.0 106:0.0 107:0.0 108:1.0 109:1.0 110:1.0 111:1.0 112:1.0 113:0.0 114:0.0 115:0.0 116:0.0 117:0.0 118:1.0 119:1.0 120:1.0 121:1.0 122:1.0 123:1.0 124:1.0 125:1.0 126:1.0 127:1.0 128:1.0 129:0.0 130:0.0 131:1.0 132:1.0 133:1.0 134:1.0 135:1.0 136:1.0 137:1.0 138:1.0 139:1.0 140:1.0 141:1.0 142:1.0 143:1.0 144:0.0 145:0.0 146:1.0 147:1.0 148:1.0 149:1.0 150:1.0 151:0.0 152:0.0 153:0.0 154:0.0 155:1.0 156:1.0 157:1.0 158:1.0 159:1.0 160:0.0 161:1.0 162:1.0 163:1.0 164:1.0 165:0.0 166:0.0 167:0.0 168:0.0 169:0.0 170:0.0 171:1.0 172:1.0 173:1.0 174:1.0 175:0.0 176:0.0 177:1.0 178:1.0 179:1.0 180:1.0 181:1.0 182:0.0 183:0.0 184:0.0 185:0.0 186:1.0 187:1.0 188:1.0 189:1.0 190:1.0 191:0.0 192:0.0 193:0.0 194:1.0 195:1.0 196:1.0 197:1.0 198:1.0 199:1.0 200:1.0 201:1.0 202:1.0 203:1.0 204:1.0 205:1.0 206:1.0 207:0.0 208:0.0 209:0.0 210:0.0 211:0.0 212:0.0 213:0.0 214:0.0 215:0.0 216:0.0 217:0.0 218:0.0 219:0.0 220:0.0 221:0.0 222:0.0 223:0.0 224:0.0 225:0.0 226:0.0 227:0.0 228:0.0 229:0.0 230:0.0 231:0.0 232:0.0 233:0.0 234:0.0 235:0.0 236:0.0 237:0.0 238:0.0 239:0.0 240:0.0 241:0.0 242:0.0 243:0.0 244:0.0 245:0.0 246:0.0 247:0.0 248:0.0 249:0.0 250:0.0 251:0.0 252:0.0 253:0.0 254:0.0 255:0.0 256:0.0 
0.0 0.0 0.0 0.0 0.0 0.0 0.0 0.0 0.0 0.0 0.0 0.019549897917147712 0.0074277841751937655 0.0 0.0 0.0 0.0 0.0 0.0 0.004544240609753905 0.0 0.0 0.0 0.0 0.0 0.0 0.0 0.0 0.0 0.0 0.0 1:0.0 2:0.0 3:0.0 4:0.0 5:0.0 6:0.0 7:0.0 8:0.0 9:0.0 10:0.0 11:0.0 12:0.0 13:0.0 14:0.0 15:0.0 16:0.0 17:0.0 18:0.0 19:0.0 20:0.0 21:0.0 22:0.0 23:0.0 24:0.0 25:0.0 26:0.0 27:0.0 28:0.0 29:0.0 30:0.0 31:0.0 32:0.0 33:0.0 34:0.0 35:0.0 36:0.0 37:0.0 38:0.0 39:0.0 40:0.0 41:0.0 42:0.0 43:0.0 44:0.0 45:0.0 46:0.0 47:0.0 48:0.0 49:0.0 50:0.0 51:0.0 52:0.0 53:1.0 54:1.0 55:1.0 56:1.0 57:1.0 58:1.0 59:1.0 60:1.0 61:1.0 62:0.0 63:0.0 64:0.0 65:0.0 66:0.0 67:0.0 68:1.0 69:1.0 70:1.0 71:1.0 72:1.0 73:1.0 74:1.0 75:1.0 76:1.0 77:1.0 78:1.0 79:1.0 80:1.0 81:0.0 82:0.0 83:0.0 84:0.0 85:0.0 86:0.0 87:0.0 88:0.0 89:0.0 90:0.0 91:0.0 92:1.0 93:1.0 94:1.0 95:1.0 96:1.0 97:0.0 98:0.0 99:0.0 100:0.0 101:0.0 102:0.0 103:0.0 104:0.0 105:0.0 106:0.0 107:0.0 108:1.0 109:1.0 110:1.0 111:1.0 112:1.0 113:0.0 114:0.0 115:0.0 116:0.0 117:0.0 118:0.0 119:1.0 120:1.0 121:1.0 122:1.0 123:1.0 124:1.0 125:1.0 126:1.0 127:1.0 128:1.0 129:0.0 130:0.0 131:1.0 132:1.0 133:1.0 134:1.0 135:1.0 136:1.0 137:1.0 138:1.0 139:1.0 140:1.0 141:1.0 142:1.0 143:1.0 144:0.0 145:0.0 146:1.0 147:1.0 148:1.0 149:1.0 150:1.0 151:0.0 152:0.0 153:0.0 154:0.0 155:1.0 156:1.0 157:1.0 158:1.0 159:1.0 160:0.0 161:1.0 162:1.0 163:1.0 164:1.0 165:0.0 166:0.0 167:0.0 168:0.0 169:0.0 170:0.0 171:1.0 172:1.0 173:1.0 174:1.0 175:0.0 176:0.0 177:1.0 178:1.0 179:1.0 180:1.0 181:1.0 182:0.0 183:0.0 184:0.0 185:0.0 186:1.0 187:1.0 188:1.0 189:1.0 190:1.0 191:0.0 192:0.0 193:0.0 194:1.0 195:1.0 196:1.0 197:1.0 198:1.0 199:1.0 200:1.0 201:1.0 202:1.0 203:1.0 204:1.0 205:1.0 206:1.0 207:0.0 208:0.0 209:0.0 210:0.0 211:0.0 212:1.0 213:0.0 214:0.0 215:0.0 216:0.0 217:0.0 218:0.0 219:1.0 220:0.0 221:0.0 222:0.0 223:0.0 224:0.0 225:0.0 226:0.0 227:0.0 228:0.0 229:0.0 230:0.0 231:0.0 232:0.0 233:0.0 234:0.0 235:0.0 236:0.0 237:0.0 238:0.0 239:0.0 240:0.0 241:0.0 242:0.0 243:0.0 244:0.0 245:0.0 246:0.0 247:0.0 248:0.0 249:0.0 250:0.0 251:0.0 252:0.0 253:0.0 254:0.0 255:0.0 256:0.0 
0.0 0.00581774307621296 0.0036824364350597845 0.0 0.0 0.0 0.0 0.0 0.0 0.0 0.0 0.0 0.0 0.0 0.0 0.0 0.0 0.0 0.0 0.0 0.0 0.0 0.0 0.0 0.0 0.0 0.0 0.0 0.0 0.0 0.0 1:0.0 2:0.0 3:0.0 4:0.0 5:0.0 6:0.0 7:0.0 8:1.0 9:1.0 10:1.0 11:1.0 12:1.0 13:0.0 14:0.0 15:0.0 16:0.0 17:0.0 18:0.0 19:0.0 20:0.0 21:0.0 22:0.0 23:1.0 24:1.0 25:1.0 26:1.0 27:1.0 28:1.0 29:0.0 30:0.0 31:0.0 32:0.0 33:0.0 34:0.0 35:0.0 36:0.0 37:0.0 38:1.0 39:1.0 40:1.0 41:1.0 42:1.0 43:1.0 44:1.0 45:1.0 46:0.0 47:0.0 48:0.0 49:0.0 50:0.0 51:0.0 52:0.0 53:1.0 54:1.0 55:1.0 56:1.0 57:1.0 58:1.0 59:1.0 60:1.0 61:1.0 62:0.0 63:0.0 64:0.0 65:0.0 66:0.0 67:0.0 68:0.0 69:1.0 70:1.0 71:1.0 72:1.0 73:1.0 74:1.0 75:1.0 76:1.0 77:1.0 78:0.0 79:0.0 80:0.0 81:0.0 82:0.0 83:0.0 84:1.0 85:1.0 86:1.0 87:1.0 88:1.0 89:0.0 90:0.0 91:1.0 92:1.0 93:1.0 94:0.0 95:0.0 96:0.0 97:0.0 98:0.0 99:1.0 100:1.0 101:1.0 102:1.0 103:0.0 104:0.0 105:0.0 106:0.0 107:1.0 108:1.0 109:1.0 110:1.0 111:0.0 112:0.0 113:0.0 114:1.0 115:1.0 116:1.0 117:1.0 118:1.0 119:0.0 120:0.0 121:0.0 122:0.0 123:1.0 124:1.0 125:1.0 126:1.0 127:0.0 128:0.0 129:1.0 130:1.0 131:1.0 132:1.0 133:1.0 134:1.0 135:1.0 136:1.0 137:1.0 138:1.0 139:1.0 140:1.0 141:1.0 142:1.0 143:0.0 144:0.0 145:1.0 146:1.0 147:1.0 148:1.0 149:1.0 150:1.0 151:1.0 152:1.0 153:1.0 154:1.0 155:1.0 156:1.0 157:1.0 158:1.0 159:0.0 160:0.0 161:1.0 162:1.0 163:1.0 164:1.0 165:1.0 166:1.0 167:1.0 168:1.0 169:1.0 170:1.0 171:1.0 172:1.0 173:1.0 174:1.0 175:0.0 176:0.0 177:1.0 178:1.0 179:1.0 180:1.0 181:0.0 182:0.0 183:0.0 184:0.0 185:0.0 186:0.0 187:1.0 188:1.0 189:1.0 190:1.0 191:1.0 192:0.0 193:1.0 194:1.0 195:1.0 196:0.0 197:0.0 198:0.0 199:0.0 200:0.0 201:0.0 202:0.0 203:0.0 204:1.0 205:1.0 206:1.0 207:1.0 208:0.0 209:0.0 210:0.0 211:0.0 212:0.0 213:0.0 214:0.0 215:0.0 216:0.0 217:0.0 218:0.0 219:0.0 220:0.0 221:0.0 222:0.0 223:0.0 224:0.0 225:0.0 226:0.0 227:0.0 228:0.0 229:0.0 230:0.0 231:0.0 232:0.0 233:0.0 234:0.0 235:0.0 236:0.0 237:0.0 238:0.0 239:0.0 240:0.0 241:0.0 242:0.0 243:0.0 244:0.0 245:0.0 246:0.0 247:0.0 248:0.0 249:0.0 250:0.0 251:0.0 252:0.0 253:0.0 254:0.0 255:0.0 256:0.0 
0.0201535913240701 0.0 0.0 0.0 0.0 0.005313589454454643 0.025920885607106654 0.0 0.0 0.0 0.005208608778107472 0.003955248620229115 0.012613969441307648 0.0 0.0 0.0 0.0 0.0 0.0 0.0 0.0 0.0 0.0 0.0 0.0 0.0 0.01235878542166384 0.007109197708396102 0.0 0.005507321665599583 0.009785031979874579 1:1.0 2:1.0 3:1.0 4:1.0 5:0.0 6:0.0 7:0.0 8:1.0 9:1.0 10:1.0 11:1.0 12:0.0 13:0.0 14:0.0 15:0.0 16:0.0 17:1.0 18:1.0 19:1.0 20:1.0 21:0.0 22:1.0 23:1.0 24:1.0 25:1.0 26:1.0 27:1.0 28:1.0 29:0.0 30:0.0 31:0.0 32:0.0 33:1.0 34:1.0 35:1.0 36:1.0 37:1.0 38:1.0 39:1.0 40:1.0 41:1.0 42:1.0 43:1.0 44:1.0 45:1.0 46:0.0 47:0.0 48:0.0 49:1.0 50:1.0 51:1.0 52:1.0 53:1.0 54:1.0 55:1.0 56:1.0 57:1.0 58:1.0 59:1.0 60:1.0 61:1.0 62:0.0 63:0.0 64:0.0 65:1.0 66:1.0 67:1.0 68:1.0 69:1.0 70:1.0 71:1.0 72:1.0 73:1.0 74:1.0 75:1.0 76:1.0 77:1.0 78:0.0 79:0.0 80:0.0 81:1.0 82:0.0 83:1.0 84:1.0 85:1.0 86:1.0 87:1.0 88:1.0 89:0.0 90:1.0 91:1.0 92:1.0 93:1.0 94:0.0 95:0.0 96:0.0 97:1.0 98:1.0 99:1.0 100:1.0 101:1.0 102:1.0 103:0.0 104:0.0 105:0.0 106:1.0 107:1.0 108:1.0 109:1.0 110:1.0 111:0.0 112:0.0 113:1.0 114:1.0 115:1.0 116:1.0 117:1.0 118:1.0 119:0.0 120:0.0 121:0.0 122:1.0 123:1.0 124:1.0 125:1.0 126:1.0 127:0.0 128:0.0 129:1.0 130:1.0 131:1.0 132:1.0 133:1.0 134:1.0 135:1.0 136:1.0 137:1.0 138:1.0 139:1.0 140:1.0 141:1.0 142:1.0 143:1.0 144:0.0 145:1.0 146:1.0 147:1.0 148:1.0 149:1.0 150:1.0 151:1.0 152:1.0 153:1.0 154:1.0 155:1.0 156:1.0 157:1.0 158:1.0 159:1.0 160:0.0 161:1.0 162:1.0 163:1.0 164:1.0 165:1.0 166:1.0 167:1.0 168:1.0 169:1.0 170:1.0 171:1.0 172:1.0 173:1.0 174:1.0 175:0.0 176:0.0 177:1.0 178:1.0 179:1.0 180:0.0 181:0.0 182:0.0 183:0.0 184:0.0 185:0.0 186:1.0 187:1.0 188:1.0 189:1.0 190:1.0 191:1.0 192:0.0 193:1.0 194:1.0 195:0.0 196:0.0 197:0.0 198:0.0 199:0.0 200:0.0 201:0.0 202:1.0 203:1.0 204:1.0 205:1.0 206:1.0 207:1.0 208:0.0 209:0.0 210:0.0 211:0.0 212:0.0 213:0.0 214:0.0 215:0.0 216:0.0 217:0.0 218:0.0 219:0.0 220:0.0 221:0.0 222:0.0 223:0.0 224:0.0 225:0.0 226:0.0 227:0.0 228:0.0 229:0.0 230:0.0 231:0.0 232:0.0 233:0.0 234:0.0 235:0.0 236:0.0 237:0.0 238:0.0 239:0.0 240:0.0 241:0.0 242:0.0 243:0.0 244:0.0 245:0.0 246:0.0 247:0.0 248:0.0 249:0.0 250:0.0 251:0.0 252:0.0 253:0.0 254:0.0 255:0.0 256:0.0 
0.0 0.00662345776381241 0.0 0.01548213450522071 0.0 0.005895064670767412 0.010521374334711307 0.0 0.0 0.0 0.0 0.0 0.0030129424805296194 0.0 0.0 0.011142980459284326 0.0 0.015210193180379502 0.0 0.0 0.0 0.0 0.0 0.0 0.0 0.0 0.00326566723160705 0.0 0.0 0.0 0.0 1:0.0 2:0.0 3:0.0 4:0.0 5:0.0 6:0.0 7:0.0 8:0.0 9:0.0 10:0.0 11:0.0 12:0.0 13:0.0 14:0.0 15:0.0 16:0.0 17:0.0 18:0.0 19:0.0 20:0.0 21:0.0 22:0.0 23:0.0 24:0.0 25:0.0 26:0.0 27:0.0 28:0.0 29:0.0 30:0.0 31:0.0 32:0.0 33:0.0 34:0.0 35:0.0 36:0.0 37:0.0 38:0.0 39:0.0 40:0.0 41:0.0 42:0.0 43:0.0 44:0.0 45:0.0 46:0.0 47:0.0 48:0.0 49:0.0 50:0.0 51:0.0 52:0.0 53:0.0 54:1.0 55:1.0 56:1.0 57:1.0 58:1.0 59:1.0 60:1.0 61:1.0 62:0.0 63:0.0 64:0.0 65:0.0 66:0.0 67:0.0 68:1.0 69:1.0 70:1.0 71:1.0 72:1.0 73:1.0 74:1.0 75:1.0 76:1.0 77:1.0 78:1.0 79:1.0 80:1.0 81:0.0 82:0.0 83:0.0 84:1.0 85:1.0 86:0.0 87:0.0 88:0.0 89:0.0 90:0.0 91:0.0 92:1.0 93:1.0 94:1.0 95:1.0 96:1.0 97:0.0 98:0.0 99:0.0 100:0.0 101:0.0 102:0.0 103:0.0 104:0.0 105:0.0 106:0.0 107:0.0 108:1.0 109:1.0 110:1.0 111:1.0 112:1.0 113:0.0 114:0.0 115:0.0 116:0.0 117:0.0 118:0.0 119:0.0 120:1.0 121:1.0 122:1.0 123:1.0 124:1.0 125:1.0 126:1.0 127:1.0 128:1.0 129:0.0 130:0.0 131:0.0 132:1.0 133:1.0 134:1.0 135:1.0 136:1.0 137:1.0 138:1.0 139:1.0 140:1.0 141:1.0 142:1.0 143:1.0 144:0.0 145:0.0 146:0.0 147:1.0 148:1.0 149:1.0 150:1.0 151:1.0 152:0.0 153:0.0 154:0.0 155:1.0 156:1.0 157:1.0 158:1.0 159:1.0 160:0.0 161:1.0 162:1.0 163:1.0 164:1.0 165:1.0 166:0.0 167:0.0 168:0.0 169:0.0 170:0.0 171:1.0 172:1.0 173:1.0 174:1.0 175:0.0 176:0.0 177:1.0 178:1.0 179:1.0 180:1.0 181:1.0 182:1.0 183:0.0 184:0.0 185:0.0 186:1.0 187:1.0 188:1.0 189:1.0 190:1.0 191:0.0 192:0.0 193:0.0 194:0.0 195:1.0 196:1.0 197:1.0 198:1.0 199:1.0 200:1.0 201:1.0 202:1.0 203:1.0 204:1.0 205:1.0 206:1.0 207:0.0 208:0.0 209:0.0 210:0.0 211:0.0 212:0.0 213:0.0 214:0.0 215:0.0 216:0.0 217:0.0 218:0.0 219:0.0 220:0.0 221:0.0 222:0.0 223:0.0 224:0.0 225:0.0 226:0.0 227:0.0 228:0.0 229:0.0 230:0.0 231:0.0 232:0.0 233:0.0 234:0.0 235:0.0 236:0.0 237:0.0 238:0.0 239:0.0 240:0.0 241:0.0 242:0.0 243:0.0 244:0.0 245:0.0 246:0.0 247:0.0 248:0.0 249:0.0 250:0.0 251:0.0 252:0.0 253:0.0 254:0.0 255:0.0 256:0.0 
0.0 0.0 0.0 0.0 0.0 0.0 0.0 0.0012606289785557973 0.0016029034521866476 0.001718556486851696 0.0 0.0 0.0 0.0 0.0 0.006891225392011657 0.0 0.0 0.001729245492159216 0.0 0.0 0.0 0.0 0.0 0.0 0.0 0.0 0.0 0.0 0.0 0.0 1:0.0 2:0.0 3:0.0 4:0.0 5:0.0 6:0.0 7:0.0 8:0.0 9:1.0 10:1.0 11:1.0 12:0.0 13:0.0 14:0.0 15:0.0 16:0.0 17:0.0 18:0.0 19:0.0 20:0.0 21:0.0 22:0.0 23:0.0 24:1.0 25:1.0 26:1.0 27:1.0 28:1.0 29:0.0 30:0.0 31:0.0 32:0.0 33:0.0 34:0.0 35:0.0 36:0.0 37:0.0 38:0.0 39:1.0 40:1.0 41:1.0 42:1.0 43:1.0 44:1.0 45:1.0 46:0.0 47:0.0 48:0.0 49:1.0 50:0.0 51:0.0 52:0.0 53:0.0 54:1.0 55:1.0 56:1.0 57:1.0 58:1.0 59:1.0 60:1.0 61:1.0 62:0.0 63:0.0 64:0.0 65:1.0 66:0.0 67:0.0 68:0.0 69:0.0 70:1.0 71:1.0 72:1.0 73:1.0 74:1.0 75:1.0 76:1.0 77:1.0 78:0.0 79:0.0 80:0.0 81:0.0 82:0.0 83:0.0 84:0.0 85:1.0 86:1.0 87:1.0 88:1.0 89:0.0 90:0.0 91:1.0 92:1.0 93:1.0 94:0.0 95:0.0 96:0.0 97:0.0 98:0.0 99:0.0 100:1.0 101:1.0 102:1.0 103:1.0 104:0.0 105:0.0 106:0.0 107:1.0 108:1.0 109:1.0 110:1.0 111:0.0 112:0.0 113:0.0 114:0.0 115:1.0 116:1.0 117:1.0 118:1.0 119:1.0 120:0.0 121:0.0 122:0.0 123:1.0 124:1.0 125:1.0 126:1.0 127:0.0 128:0.0 129:0.0 130:0.0 131:1.0 132:1.0 133:1.0 134:1.0 135:1.0 136:1.0 137:1.0 138:1.0 139:1.0 140:1.0 141:1.0 142:1.0 143:0.0 144:0.0 145:0.0 146:0.0 147:1.0 148:1.0 149:1.0 150:1.0 151:1.0 152:1.0 153:1.0 154:1.0 155:1.0 156:1.0 157:1.0 158:1.0 159:0.0 160:0.0 161:0.0 162:1.0 163:1.0 164:1.0 165:1.0 166:1.0 167:1.0 168:1.0 169:1.0 170:1.0 171:1.0 172:1.0 173:1.0 174:1.0 175:0.0 176:0.0 177:1.0 178:1.0 179:1.0 180:1.0 181:1.0 182:0.0 183:0.0 184:0.0 185:1.0 186:0.0 187:1.0 188:1.0 189:1.0 190:1.0 191:1.0 192:0.0 193:1.0 194:1.0 195:1.0 196:1.0 197:0.0 198:0.0 199:0.0 200:0.0 201:0.0 202:0.0 203:0.0 204:1.0 205:1.0 206:1.0 207:1.0 208:0.0 209:0.0 210:0.0 211:0.0 212:0.0 213:0.0 214:0.0 215:0.0 216:0.0 217:0.0 218:0.0 219:0.0 220:0.0 221:0.0 222:0.0 223:0.0 224:0.0 225:0.0 226:0.0 227:0.0 228:0.0 229:0.0 230:0.0 231:0.0 232:0.0 233:0.0 234:0.0 235:0.0 236:0.0 237:0.0 238:0.0 239:0.0 240:0.0 241:0.0 242:0.0 243:0.0 244:0.0 245:0.0 246:0.0 247:0.0 248:0.0 249:0.0 250:0.0 251:0.0 252:0.0 253:0.0 254:0.0 255:0.0 256:0.0 
0.0 0.0 0.0 0.0 0.003392007887387987 0.0 0.00893487223197591 0.0 0.0 0.0 0.0 0.0 0.0 0.0 0.0 0.0 0.005723840584644421 0.0 0.0 0.0 0.0 0.0 0.0 0.008531569842919152 0.0048094166866501555 0.0 0.0 0.0 0.008676898593458124 0.0 0.003540048445439108 1:0.0 2:0.0 3:0.0 4:0.0 5:0.0 6:0.0 7:0.0 8:0.0 9:0.0 10:1.0 11:1.0 12:1.0 13:1.0 14:0.0 15:0.0 16:0.0 17:0.0 18:0.0 19:0.0 20:0.0 21:0.0 22:0.0 23:0.0 24:1.0 25:1.0 26:1.0 27:1.0 28:1.0 29:1.0 30:1.0 31:0.0 32:0.0 33:0.0 34:0.0 35:0.0 36:0.0 37:0.0 38:0.0 39:0.0 40:1.0 41:1.0 42:1.0 43:1.0 44:1.0 45:1.0 46:1.0 47:0.0 48:0.0 49:0.0 50:0.0 51:0.0 52:0.0 53:0.0 54:0.0 55:1.0 56:1.0 57:1.0 58:1.0 59:1.0 60:1.0 61:1.0 62:1.0 63:0.0 64:0.0 65:0.0 66:0.0 67:0.0 68:0.0 69:0.0 70:0.0 71:1.0 72:1.0 73:1.0 74:1.0 75:1.0 76:1.0 77:1.0 78:1.0 79:0.0 80:0.0 81:0.0 82:0.0 83:0.0 84:0.0 85:0.0 86:1.0 87:1.0 88:1.0 89:1.0 90:1.0 91:0.0 92:1.0 93:1.0 94:1.0 95:0.0 96:0.0 97:0.0 98:0.0 99:0.0 100:0.0 101:1.0 102:1.0 103:1.0 104:1.0 105:0.0 106:0.0 107:0.0 108:1.0 109:1.0 110:1.0 111:1.0 112:0.0 113:0.0 114:0.0 115:0.0 116:1.0 117:1.0 118:1.0 119:1.0 120:1.0 121:0.0 122:0.0 123:0.0 124:1.0 125:1.0 126:1.0 127:1.0 128:0.0 129:0.0 130:0.0 131:1.0 132:1.0 133:1.0 134:1.0 135:1.0 136:1.0 137:1.0 138:1.0 139:1.0 140:1.0 141:1.0 142:1.0 143:1.0 144:0.0 145:0.0 146:0.0 147:1.0 148:1.0 149:1.0 150:1.0 151:1.0 152:1.0 153:1.0 154:1.0 155:1.0 156:1.0 157:1.0 158:1.0 159:1.0 160:0.0 161:0.0 162:0.0 163:1.0 164:1.0 165:1.0 166:1.0 167:1.0 168:1.0 169:1.0 170:1.0 171:1.0 172:1.0 173:1.0 174:1.0 175:1.0 176:0.0 177:0.0 178:1.0 179:1.0 180:1.0 181:1.0 182:1.0 183:0.0 184:0.0 185:0.0 186:0.0 187:0.0 188:1.0 189:1.0 190:1.0 191:1.0 192:1.0 193:1.0 194:1.0 195:1.0 196:1.0 197:1.0 198:0.0 199:0.0 200:0.0 201:0.0 202:0.0 203:0.0 204:0.0 205:1.0 206:1.0 207:1.0 208:1.0 209:0.0 210:0.0 211:0.0 212:0.0 213:0.0 214:0.0 215:0.0 216:0.0 217:0.0 218:0.0 219:0.0 220:0.0 221:0.0 222:0.0 223:0.0 224:0.0 225:0.0 226:0.0 227:0.0 228:0.0 229:0.0 230:0.0 231:0.0 232:0.0 233:0.0 234:0.0 235:0.0 236:0.0 237:0.0 238:0.0 239:0.0 240:0.0 241:0.0 242:0.0 243:0.0 244:0.0 245:0.0 246:0.0 247:0.0 248:0.0 249:0.0 250:0.0 251:0.0 252:0.0 253:0.0 254:0.0 255:0.0 256:0.0 
0.0 0.0 0.0 0.0 0.0 0.0 0.0 0.0 0.0 0.0 0.0 0.0 0.00910718992349607 0.0017144338342609093 0.0 0.0 0.0 0.0023409396132416716 0.0 0.0 0.0 0.0 0.0 0.0 0.0 0.0 0.0 0.0 0.0 0.0 0.0 1:0.0 2:0.0 3:0.0 4:0.0 5:0.0 6:0.0 7:0.0 8:0.0 9:1.0 10:1.0 11:1.0 12:1.0 13:0.0 14:0.0 15:0.0 16:0.0 17:0.0 18:0.0 19:0.0 20:0.0 21:0.0 22:0.0 23:0.0 24:1.0 25:1.0 26:1.0 27:1.0 28:1.0 29:1.0 30:0.0 31:0.0 32:0.0 33:0.0 34:0.0 35:0.0 36:0.0 37:0.0 38:0.0 39:1.0 40:1.0 41:1.0 42:1.0 43:1.0 44:1.0 45:1.0 46:1.0 47:0.0 48:0.0 49:0.0 50:0.0 51:0.0 52:0.0 53:0.0 54:1.0 55:1.0 56:1.0 57:1.0 58:1.0 59:1.0 60:1.0 61:1.0 62:1.0 63:1.0 64:0.0 65:0.0 66:0.0 67:0.0 68:0.0 69:1.0 70:1.0 71:1.0 72:1.0 73:1.0 74:1.0 75:1.0 76:1.0 77:1.0 78:1.0 79:0.0 80:0.0 81:0.0 82:0.0 83:0.0 84:0.0 85:1.0 86:1.0 87:1.0 88:1.0 89:1.0 90:0.0 91:0.0 92:1.0 93:1.0 94:1.0 95:0.0 96:0.0 97:0.0 98:0.0 99:0.0 100:1.0 101:1.0 102:1.0 103:1.0 104:0.0 105:0.0 106:0.0 107:0.0 108:1.0 109:1.0 110:1.0 111:1.0 112:0.0 113:0.0 114:0.0 115:1.0 116:1.0 117:1.0 118:1.0 119:1.0 120:0.0 121:0.0 122:0.0 123:0.0 124:1.0 125:1.0 126:1.0 127:1.0 128:0.0 129:0.0 130:1.0 131:1.0 132:1.0 133:1.0 134:1.0 135:1.0 136:1.0 137:1.0 138:1.0 139:1.0 140:1.0 141:1.0 142:1.0 143:1.0 144:1.0 145:0.0 146:1.0 147:1.0 148:1.0 149:1.0 150:1.0 151:1.0 152:1.0 153:1.0 154:1.0 155:1.0 156:1.0 157:1.0 158:1.0 159:1.0 160:1.0 161:1.0 162:1.0 163:1.0 164:1.0 165:1.0 166:1.0 167:1.0 168:1.0 169:1.0 170:1.0 171:1.0 172:1.0 173:1.0 174:1.0 175:1.0 176:0.0 177:1.0 178:1.0 179:1.0 180:1.0 181:0.0 182:0.0 183:0.0 184:0.0 185:0.0 186:0.0 187:0.0 188:1.0 189:1.0 190:1.0 191:1.0 192:1.0 193:1.0 194:1.0 195:1.0 196:1.0 197:0.0 198:0.0 199:0.0 200:0.0 201:0.0 202:0.0 203:0.0 204:0.0 205:1.0 206:1.0 207:1.0 208:1.0 209:0.0 210:0.0 211:0.0 212:0.0 213:0.0 214:0.0 215:0.0 216:0.0 217:0.0 218:0.0 219:0.0 220:0.0 221:0.0 222:0.0 223:0.0 224:0.0 225:0.0 226:0.0 227:0.0 228:0.0 229:0.0 230:0.0 231:0.0 232:0.0 233:0.0 234:0.0 235:0.0 236:0.0 237:0.0 238:0.0 239:0.0 240:0.0 241:0.0 242:0.0 243:0.0 244:0.0 245:0.0 246:0.0 247:0.0 248:0.0 249:0.0 250:0.0 251:0.0 252:0.0 253:0.0 254:0.0 255:0.0 256:0.0 
0.0 0.0 0.0 0.0 0.0 0.0 0.0 0.0 0.0 0.0 3.159210504117961E-4 0.0 0.0 0.0 0.0 0.0 0.0 0.0 0.0 7.989754427924749E-4 0.0 0.0 0.0 0.0 0.0 0.0 0.0 0.0 0.0 0.0 0.0 1:0.0 2:0.0 3:0.0 4:0.0 5:0.0 6:0.0 7:0.0 8:0.0 9:0.0 10:0.0 11:0.0 12:0.0 13:0.0 14:0.0 15:0.0 16:0.0 17:0.0 18:0.0 19:0.0 20:0.0 21:0.0 22:0.0 23:0.0 24:0.0 25:0.0 26:0.0 27:0.0 28:0.0 29:0.0 30:0.0 31:0.0 32:0.0 33:0.0 34:0.0 35:0.0 36:0.0 37:0.0 38:0.0 39:0.0 40:0.0 41:0.0 42:0.0 43:0.0 44:0.0 45:0.0 46:0.0 47:0.0 48:0.0 49:0.0 50:0.0 51:0.0 52:0.0 53:1.0 54:1.0 55:1.0 56:1.0 57:1.0 58:1.0 59:1.0 60:1.0 61:1.0 62:0.0 63:0.0 64:0.0 65:0.0 66:0.0 67:0.0 68:1.0 69:1.0 70:1.0 71:1.0 72:1.0 73:1.0 74:1.0 75:1.0 76:1.0 77:1.0 78:1.0 79:1.0 80:1.0 81:0.0 82:0.0 83:0.0 84:0.0 85:0.0 86:0.0 87:0.0 88:0.0 89:0.0 90:0.0 91:0.0 92:1.0 93:1.0 94:1.0 95:1.0 96:1.0 97:0.0 98:0.0 99:0.0 100:0.0 101:0.0 102:0.0 103:0.0 104:0.0 105:0.0 106:0.0 107:0.0 108:1.0 109:1.0 110:1.0 111:1.0 112:1.0 113:0.0 114:0.0 115:0.0 116:0.0 117:0.0 118:0.0 119:1.0 120:1.0 121:1.0 122:1.0 123:1.0 124:1.0 125:1.0 126:1.0 127:1.0 128:1.0 129:0.0 130:0.0 131:1.0 132:1.0 133:1.0 134:1.0 135:1.0 136:1.0 137:1.0 138:1.0 139:1.0 140:1.0 141:1.0 142:1.0 143:1.0 144:0.0 145:0.0 146:1.0 147:1.0 148:1.0 149:1.0 150:1.0 151:0.0 152:0.0 153:0.0 154:0.0 155:1.0 156:1.0 157:1.0 158:1.0 159:1.0 160:1.0 161:1.0 162:1.0 163:1.0 164:1.0 165:0.0 166:0.0 167:0.0 168:0.0 169:0.0 170:0.0 171:1.0 172:1.0 173:1.0 174:1.0 175:0.0 176:0.0 177:1.0 178:1.0 179:1.0 180:1.0 181:1.0 182:0.0 183:0.0 184:0.0 185:0.0 186:1.0 187:1.0 188:1.0 189:1.0 190:1.0 191:0.0 192:0.0 193:0.0 194:1.0 195:1.0 196:1.0 197:1.0 198:1.0 199:1.0 200:1.0 201:1.0 202:1.0 203:1.0 204:1.0 205:1.0 206:1.0 207:0.0 208:0.0 209:0.0 210:0.0 211:0.0 212:0.0 213:0.0 214:0.0 215:0.0 216:0.0 217:0.0 218:0.0 219:0.0 220:1.0 221:0.0 222:0.0 223:0.0 224:0.0 225:0.0 226:0.0 227:0.0 228:0.0 229:0.0 230:0.0 231:0.0 232:0.0 233:0.0 234:0.0 235:0.0 236:0.0 237:0.0 238:0.0 239:0.0 240:0.0 241:0.0 242:0.0 243:0.0 244:0.0 245:0.0 246:0.0 247:0.0 248:0.0 249:0.0 250:0.0 251:0.0 252:0.0 253:0.0 254:0.0 255:0.0 256:0.0 
0.0 0.0 0.0 0.003990013102001436 0.0 0.0 0.0 0.0 0.0 0.0 0.0 0.0 0.0 0.0 0.0 0.0 0.0 0.0 0.0 0.0 0.0 0.0 0.0 0.0 0.0 0.0 0.0 0.0 0.0 0.0 0.0 1:0.0 2:0.0 3:0.0 4:0.0 5:0.0 6:0.0 7:0.0 8:1.0 9:1.0 10:1.0 11:1.0 12:1.0 13:0.0 14:0.0 15:0.0 16:0.0 17:0.0 18:0.0 19:0.0 20:0.0 21:0.0 22:0.0 23:1.0 24:1.0 25:1.0 26:1.0 27:1.0 28:1.0 29:0.0 30:0.0 31:0.0 32:0.0 33:0.0 34:0.0 35:0.0 36:0.0 37:0.0 38:1.0 39:1.0 40:1.0 41:1.0 42:1.0 43:1.0 44:1.0 45:1.0 46:0.0 47:0.0 48:0.0 49:0.0 50:0.0 51:0.0 52:0.0 53:1.0 54:1.0 55:1.0 56:1.0 57:1.0 58:1.0 59:1.0 60:1.0 61:1.0 62:0.0 63:0.0 64:0.0 65:0.0 66:0.0 67:0.0 68:0.0 69:1.0 70:1.0 71:1.0 72:1.0 73:1.0 74:1.0 75:1.0 76:1.0 77:1.0 78:0.0 79:0.0 80:0.0 81:0.0 82:0.0 83:0.0 84:1.0 85:1.0 86:1.0 87:1.0 88:1.0 89:0.0 90:0.0 91:1.0 92:1.0 93:1.0 94:0.0 95:0.0 96:0.0 97:0.0 98:0.0 99:1.0 100:1.0 101:1.0 102:1.0 103:0.0 104:0.0 105:0.0 106:0.0 107:1.0 108:1.0 109:1.0 110:1.0 111:0.0 112:0.0 113:0.0 114:1.0 115:1.0 116:1.0 117:1.0 118:1.0 119:0.0 120:0.0 121:0.0 122:0.0 123:1.0 124:1.0 125:1.0 126:1.0 127:0.0 128:0.0 129:1.0 130:1.0 131:1.0 132:1.0 133:1.0 134:1.0 135:1.0 136:1.0 137:1.0 138:1.0 139:1.0 140:1.0 141:1.0 142:1.0 143:0.0 144:0.0 145:1.0 146:1.0 147:1.0 148:1.0 149:1.0 150:1.0 151:1.0 152:1.0 153:1.0 154:1.0 155:1.0 156:1.0 157:1.0 158:1.0 159:0.0 160:0.0 161:1.0 162:1.0 163:1.0 164:1.0 165:1.0 166:1.0 167:1.0 168:1.0 169:1.0 170:1.0 171:1.0 172:1.0 173:1.0 174:1.0 175:0.0 176:0.0 177:1.0 178:1.0 179:1.0 180:1.0 181:0.0 182:0.0 183:0.0 184:0.0 185:0.0 186:0.0 187:1.0 188:1.0 189:1.0 190:1.0 191:1.0 192:0.0 193:1.0 194:1.0 195:1.0 196:0.0 197:0.0 198:0.0 199:0.0 200:0.0 201:0.0 202:0.0 203:1.0 204:1.0 205:1.0 206:1.0 207:1.0 208:0.0 209:0.0 210:0.0 211:0.0 212:0.0 213:0.0 214:0.0 215:0.0 216:0.0 217:0.0 218:0.0 219:0.0 220:0.0 221:0.0 222:0.0 223:0.0 224:0.0 225:0.0 226:0.0 227:0.0 228:0.0 229:0.0 230:0.0 231:0.0 232:0.0 233:0.0 234:0.0 235:0.0 236:0.0 237:0.0 238:0.0 239:0.0 240:0.0 241:0.0 242:0.0 243:0.0 244:0.0 245:0.0 246:0.0 247:0.0 248:0.0 249:0.0 250:0.0 251:0.0 252:0.0 253:0.0 254:0.0 255:0.0 256:0.0 
0.0 0.0 0.0 0.0027128538257836093 0.0 0.0 0.0 0.0 0.0 0.0 0.0 0.0 0.0 0.0 0.0 0.0 0.0 0.0 0.0 0.0 0.0 0.0 0.0 0.0 0.0 0.0 0.0 0.0 0.0 0.0 0.0 1:0.0 2:0.0 3:0.0 4:0.0 5:0.0 6:0.0 7:0.0 8:0.0 9:0.0 10:0.0 11:0.0 12:0.0 13:0.0 14:0.0 15:0.0 16:0.0 17:0.0 18:0.0 19:0.0 20:0.0 21:0.0 22:0.0 23:0.0 24:0.0 25:0.0 26:0.0 27:0.0 28:0.0 29:0.0 30:0.0 31:0.0 32:0.0 33:0.0 34:0.0 35:0.0 36:0.0 37:0.0 38:0.0 39:0.0 40:0.0 41:0.0 42:0.0 43:0.0 44:0.0 45:0.0 46:0.0 47:0.0 48:0.0 49:0.0 50:0.0 51:0.0 52:0.0 53:1.0 54:1.0 55:1.0 56:1.0 57:1.0 58:1.0 59:1.0 60:1.0 61:1.0 62:0.0 63:0.0 64:0.0 65:0.0 66:0.0 67:0.0 68:1.0 69:1.0 70:1.0 71:1.0 72:1.0 73:1.0 74:1.0 75:1.0 76:1.0 77:1.0 78:1.0 79:1.0 80:1.0 81:0.0 82:0.0 83:0.0 84:0.0 85:0.0 86:0.0 87:0.0 88:0.0 89:0.0 90:0.0 91:0.0 92:1.0 93:1.0 94:1.0 95:1.0 96:1.0 97:0.0 98:0.0 99:0.0 100:0.0 101:0.0 102:0.0 103:0.0 104:0.0 105:0.0 106:0.0 107:0.0 108:1.0 109:1.0 110:1.0 111:1.0 112:1.0 113:0.0 114:0.0 115:0.0 116:0.0 117:0.0 118:1.0 119:1.0 120:1.0 121:1.0 122:1.0 123:1.0 124:1.0 125:1.0 126:1.0 127:1.0 128:1.0 129:0.0 130:0.0 131:1.0 132:1.0 133:1.0 134:1.0 135:1.0 136:1.0 137:1.0 138:1.0 139:1.0 140:1.0 141:1.0 142:1.0 143:1.0 144:0.0 145:1.0 146:1.0 147:1.0 148:1.0 149:1.0 150:1.0 151:1.0 152:0.0 153:0.0 154:0.0 155:1.0 156:1.0 157:1.0 158:1.0 159:1.0 160:0.0 161:1.0 162:1.0 163:1.0 164:1.0 165:0.0 166:0.0 167:0.0 168:0.0 169:0.0 170:0.0 171:1.0 172:1.0 173:1.0 174:1.0 175:1.0 176:0.0 177:1.0 178:1.0 179:1.0 180:1.0 181:1.0 182:0.0 183:0.0 184:0.0 185:0.0 186:1.0 187:1.0 188:1.0 189:1.0 190:1.0 191:0.0 192:0.0 193:0.0 194:1.0 195:1.0 196:1.0 197:1.0 198:1.0 199:1.0 200:1.0 201:1.0 202:1.0 203:1.0 204:1.0 205:1.0 206:1.0 207:0.0 208:0.0 209:0.0 210:0.0 211:0.0 212:0.0 213:0.0 214:0.0 215:0.0 216:0.0 217:0.0 218:0.0 219:0.0 220:0.0 221:0.0 222:0.0 223:0.0 224:0.0 225:0.0 226:0.0 227:0.0 228:0.0 229:0.0 230:0.0 231:0.0 232:0.0 233:0.0 234:0.0 235:0.0 236:0.0 237:0.0 238:0.0 239:0.0 240:0.0 241:0.0 242:0.0 243:0.0 244:0.0 245:0.0 246:0.0 247:0.0 248:0.0 249:0.0 250:0.0 251:0.0 252:0.0 253:0.0 254:0.0 255:0.0 256:0.0 
0.006745500073333596 0.0 0.0 0.0 0.0 0.0 0.0 0.0 0.0 0.0 0.0 0.0 0.0014588663676877907 0.0 0.0 0.0 0.0 0.006928728947898807 0.0 0.0 0.0 0.0 0.0 0.0 0.0 0.0 0.0 0.0 0.0 0.0 0.0 1:0.0 2:0.0 3:0.0 4:0.0 5:0.0 6:0.0 7:0.0 8:0.0 9:0.0 10:0.0 11:0.0 12:0.0 13:0.0 14:0.0 15:0.0 16:0.0 17:0.0 18:0.0 19:0.0 20:0.0 21:0.0 22:0.0 23:0.0 24:0.0 25:0.0 26:0.0 27:0.0 28:0.0 29:0.0 30:0.0 31:0.0 32:0.0 33:0.0 34:0.0 35:0.0 36:0.0 37:0.0 38:0.0 39:0.0 40:0.0 41:0.0 42:0.0 43:0.0 44:0.0 45:0.0 46:0.0 47:0.0 48:0.0 49:0.0 50:0.0 51:0.0 52:0.0 53:1.0 54:1.0 55:1.0 56:1.0 57:1.0 58:1.0 59:1.0 60:1.0 61:1.0 62:1.0 63:0.0 64:0.0 65:0.0 66:0.0 67:0.0 68:1.0 69:1.0 70:1.0 71:1.0 72:1.0 73:1.0 74:1.0 75:1.0 76:1.0 77:1.0 78:1.0 79:1.0 80:1.0 81:0.0 82:0.0 83:0.0 84:0.0 85:0.0 86:0.0 87:0.0 88:0.0 89:0.0 90:0.0 91:0.0 92:1.0 93:1.0 94:1.0 95:1.0 96:1.0 97:0.0 98:0.0 99:0.0 100:0.0 101:0.0 102:0.0 103:0.0 104:0.0 105:0.0 106:0.0 107:0.0 108:1.0 109:1.0 110:1.0 111:1.0 112:1.0 113:0.0 114:0.0 115:0.0 116:0.0 117:0.0 118:0.0 119:1.0 120:1.0 121:1.0 122:1.0 123:1.0 124:1.0 125:1.0 126:1.0 127:1.0 128:1.0 129:0.0 130:0.0 131:1.0 132:1.0 133:1.0 134:1.0 135:1.0 136:1.0 137:1.0 138:1.0 139:1.0 140:1.0 141:1.0 142:1.0 143:1.0 144:0.0 145:0.0 146:1.0 147:1.0 148:1.0 149:1.0 150:1.0 151:0.0 152:0.0 153:0.0 154:0.0 155:1.0 156:1.0 157:1.0 158:1.0 159:1.0 160:0.0 161:1.0 162:1.0 163:1.0 164:1.0 165:0.0 166:0.0 167:0.0 168:0.0 169:0.0 170:0.0 171:1.0 172:1.0 173:1.0 174:1.0 175:0.0 176:0.0 177:1.0 178:1.0 179:1.0 180:1.0 181:1.0 182:0.0 183:0.0 184:0.0 185:0.0 186:1.0 187:1.0 188:1.0 189:1.0 190:1.0 191:0.0 192:0.0 193:0.0 194:1.0 195:1.0 196:1.0 197:1.0 198:1.0 199:1.0 200:1.0 201:1.0 202:1.0 203:1.0 204:1.0 205:1.0 206:1.0 207:0.0 208:0.0 209:0.0 210:0.0 211:0.0 212:0.0 213:0.0 214:0.0 215:0.0 216:0.0 217:0.0 218:0.0 219:0.0 220:0.0 221:0.0 222:0.0 223:0.0 224:0.0 225:0.0 226:0.0 227:0.0 228:0.0 229:0.0 230:0.0 231:0.0 232:0.0 233:0.0 234:0.0 235:0.0 236:0.0 237:0.0 238:0.0 239:0.0 240:0.0 241:0.0 242:0.0 243:0.0 244:0.0 245:0.0 246:0.0 247:0.0 248:0.0 249:0.0 250:0.0 251:0.0 252:0.0 253:0.0 254:0.0 255:0.0 256:0.0 
0.0 0.0 0.0011544936556171514 0.0 0.0 0.0021471176723841163 0.0 0.005101284483284816 0.0 0.0 0.0 0.0 0.0 0.0 0.020453791113070444 0.0 2.529723434085445E-4 0.0 0.012596510041854234 0.019288420708689465 0.0 0.011404468837792062 0.007614722840721243 6.699322258718396E-5 0.0 0.0 0.0 0.0 0.0 0.0037738622986774025 0.0041654815724894555 1:0.0 2:0.0 3:0.0 4:0.0 5:0.0 6:0.0 7:0.0 8:0.0 9:0.0 10:1.0 11:1.0 12:1.0 13:1.0 14:0.0 15:0.0 16:0.0 17:0.0 18:0.0 19:0.0 20:0.0 21:0.0 22:0.0 23:0.0 24:0.0 25:1.0 26:1.0 27:1.0 28:1.0 29:1.0 30:1.0 31:0.0 32:0.0 33:0.0 34:0.0 35:0.0 36:0.0 37:0.0 38:0.0 39:0.0 40:1.0 41:1.0 42:1.0 43:1.0 44:1.0 45:1.0 46:1.0 47:0.0 48:0.0 49:0.0 50:0.0 51:0.0 52:0.0 53:0.0 54:0.0 55:1.0 56:1.0 57:1.0 58:1.0 59:1.0 60:1.0 61:1.0 62:1.0 63:1.0 64:0.0 65:0.0 66:0.0 67:0.0 68:0.0 69:0.0 70:0.0 71:1.0 72:1.0 73:1.0 74:1.0 75:1.0 76:1.0 77:1.0 78:1.0 79:0.0 80:0.0 81:0.0 82:0.0 83:0.0 84:0.0 85:0.0 86:1.0 87:1.0 88:1.0 89:1.0 90:1.0 91:0.0 92:1.0 93:1.0 94:1.0 95:0.0 96:0.0 97:0.0 98:0.0 99:0.0 100:0.0 101:1.0 102:1.0 103:1.0 104:1.0 105:0.0 106:0.0 107:0.0 108:1.0 109:1.0 110:1.0 111:1.0 112:0.0 113:0.0 114:0.0 115:0.0 116:1.0 117:1.0 118:1.0 119:1.0 120:1.0 121:0.0 122:0.0 123:0.0 124:1.0 125:1.0 126:1.0 127:1.0 128:0.0 129:0.0 130:0.0 131:1.0 132:1.0 133:1.0 134:1.0 135:1.0 136:1.0 137:1.0 138:1.0 139:1.0 140:1.0 141:1.0 142:1.0 143:1.0 144:0.0 145:0.0 146:0.0 147:1.0 148:1.0 149:1.0 150:1.0 151:1.0 152:1.0 153:1.0 154:1.0 155:1.0 156:1.0 157:1.0 158:1.0 159:1.0 160:0.0 161:0.0 162:0.0 163:1.0 164:1.0 165:1.0 166:1.0 167:1.0 168:1.0 169:1.0 170:1.0 171:1.0 172:1.0 173:1.0 174:1.0 175:1.0 176:0.0 177:0.0 178:1.0 179:1.0 180:1.0 181:1.0 182:1.0 183:0.0 184:0.0 185:0.0 186:0.0 187:0.0 188:1.0 189:1.0 190:1.0 191:1.0 192:1.0 193:1.0 194:1.0 195:1.0 196:1.0 197:1.0 198:0.0 199:0.0 200:0.0 201:0.0 202:0.0 203:0.0 204:0.0 205:1.0 206:1.0 207:1.0 208:1.0 209:0.0 210:0.0 211:0.0 212:0.0 213:0.0 214:0.0 215:0.0 216:0.0 217:0.0 218:0.0 219:0.0 220:0.0 221:0.0 222:0.0 223:0.0 224:0.0 225:0.0 226:0.0 227:0.0 228:0.0 229:0.0 230:0.0 231:0.0 232:0.0 233:0.0 234:0.0 235:0.0 236:0.0 237:0.0 238:0.0 239:0.0 240:0.0 241:0.0 242:0.0 243:0.0 244:0.0 245:0.0 246:0.0 247:0.0 248:0.0 249:0.0 250:0.0 251:0.0 252:0.0 253:0.0 254:0.0 255:0.0 256:0.0 
0.0 0.0 0.0 0.0 0.0 0.0 0.0 0.0 0.0 0.0 0.01050573041287078 0.001403432626551311 0.0 0.0 0.0 0.0 0.0 0.0 0.0 0.021294314941999456 0.0 0.0 0.0 0.0 0.0 0.0 0.0 0.0 0.0 0.0 0.0 1:0.0 2:0.0 3:0.0 4:0.0 5:0.0 6:0.0 7:0.0 8:0.0 9:0.0 10:0.0 11:0.0 12:0.0 13:0.0 14:0.0 15:0.0 16:0.0 17:0.0 18:0.0 19:0.0 20:0.0 21:0.0 22:0.0 23:0.0 24:0.0 25:0.0 26:0.0 27:0.0 28:0.0 29:0.0 30:0.0 31:0.0 32:0.0 33:0.0 34:0.0 35:0.0 36:0.0 37:0.0 38:0.0 39:0.0 40:0.0 41:0.0 42:0.0 43:0.0 44:0.0 45:0.0 46:0.0 47:0.0 48:0.0 49:0.0 50:0.0 51:0.0 52:1.0 53:1.0 54:1.0 55:1.0 56:1.0 57:1.0 58:1.0 59:1.0 60:1.0 61:1.0 62:0.0 63:0.0 64:0.0 65:0.0 66:1.0 67:1.0 68:1.0 69:1.0 70:1.0 71:1.0 72:1.0 73:1.0 74:1.0 75:1.0 76:1.0 77:1.0 78:1.0 79:1.0 80:1.0 81:0.0 82:0.0 83:1.0 84:0.0 85:0.0 86:0.0 87:0.0 88:0.0 89:1.0 90:1.0 91:1.0 92:1.0 93:1.0 94:1.0 95:1.0 96:1.0 97:0.0 98:0.0 99:0.0 100:0.0 101:0.0 102:0.0 103:0.0 104:0.0 105:1.0 106:0.0 107:1.0 108:1.0 109:1.0 110:1.0 111:1.0 112:1.0 113:0.0 114:0.0 115:0.0 116:0.0 117:0.0 118:1.0 119:1.0 120:1.0 121:1.0 122:1.0 123:1.0 124:1.0 125:1.0 126:1.0 127:1.0 128:1.0 129:1.0 130:1.0 131:1.0 132:1.0 133:1.0 134:1.0 135:1.0 136:1.0 137:1.0 138:1.0 139:1.0 140:1.0 141:1.0 142:1.0 143:1.0 144:0.0 145:1.0 146:1.0 147:1.0 148:1.0 149:1.0 150:0.0 151:0.0 152:0.0 153:0.0 154:1.0 155:1.0 156:1.0 157:1.0 158:1.0 159:1.0 160:0.0 161:1.0 162:1.0 163:1.0 164:0.0 165:0.0 166:0.0 167:0.0 168:0.0 169:0.0 170:1.0 171:1.0 172:1.0 173:1.0 174:1.0 175:0.0 176:0.0 177:1.0 178:1.0 179:1.0 180:1.0 181:0.0 182:0.0 183:0.0 184:0.0 185:1.0 186:1.0 187:1.0 188:1.0 189:1.0 190:1.0 191:0.0 192:0.0 193:1.0 194:1.0 195:1.0 196:1.0 197:1.0 198:1.0 199:1.0 200:1.0 201:1.0 202:1.0 203:1.0 204:1.0 205:1.0 206:1.0 207:0.0 208:0.0 209:0.0 210:0.0 211:0.0 212:0.0 213:0.0 214:0.0 215:0.0 216:0.0 217:0.0 218:0.0 219:0.0 220:0.0 221:0.0 222:0.0 223:0.0 224:0.0 225:0.0 226:0.0 227:0.0 228:0.0 229:0.0 230:0.0 231:0.0 232:0.0 233:0.0 234:0.0 235:0.0 236:0.0 237:0.0 238:0.0 239:0.0 240:0.0 241:0.0 242:0.0 243:0.0 244:0.0 245:0.0 246:0.0 247:0.0 248:0.0 249:0.0 250:0.0 251:0.0 252:0.0 253:0.0 254:0.0 255:0.0 256:0.0 
8.23223036873745E-4 0.003095283780581029 0.012632805975206498 0.0 0.0 0.0 0.0 0.0 0.0 0.0 0.005765970633727767 0.0 0.0 0.0 0.006032364186795345 0.0 0.0 0.0 0.0 0.0 0.0 0.0 0.0 0.0051603404310429715 0.0 0.0 0.008160298284090371 0.0 0.0 0.002173369688040189 0.0 1:0.0 2:0.0 3:0.0 4:0.0 5:0.0 6:0.0 7:0.0 8:0.0 9:0.0 10:0.0 11:0.0 12:0.0 13:0.0 14:0.0 15:0.0 16:0.0 17:0.0 18:0.0 19:0.0 20:0.0 21:0.0 22:0.0 23:0.0 24:0.0 25:0.0 26:0.0 27:0.0 28:1.0 29:1.0 30:0.0 31:0.0 32:0.0 33:0.0 34:0.0 35:0.0 36:0.0 37:0.0 38:0.0 39:0.0 40:0.0 41:0.0 42:0.0 43:0.0 44:0.0 45:1.0 46:0.0 47:0.0 48:0.0 49:0.0 50:0.0 51:0.0 52:0.0 53:1.0 54:1.0 55:1.0 56:1.0 57:1.0 58:1.0 59:1.0 60:1.0 61:1.0 62:0.0 63:0.0 64:0.0 65:0.0 66:0.0 67:0.0 68:1.0 69:1.0 70:1.0 71:1.0 72:1.0 73:1.0 74:1.0 75:1.0 76:1.0 77:1.0 78:1.0 79:1.0 80:1.0 81:0.0 82:0.0 83:0.0 84:0.0 85:0.0 86:0.0 87:0.0 88:0.0 89:0.0 90:0.0 91:0.0 92:1.0 93:1.0 94:1.0 95:1.0 96:1.0 97:0.0 98:0.0 99:0.0 100:0.0 101:0.0 102:0.0 103:0.0 104:0.0 105:0.0 106:0.0 107:0.0 108:1.0 109:1.0 110:1.0 111:1.0 112:1.0 113:0.0 114:0.0 115:0.0 116:0.0 117:0.0 118:0.0 119:1.0 120:1.0 121:1.0 122:1.0 123:1.0 124:1.0 125:1.0 126:1.0 127:1.0 128:1.0 129:0.0 130:0.0 131:1.0 132:1.0 133:1.0 134:1.0 135:1.0 136:1.0 137:1.0 138:1.0 139:1.0 140:1.0 141:1.0 142:1.0 143:1.0 144:0.0 145:0.0 146:1.0 147:1.0 148:1.0 149:1.0 150:1.0 151:0.0 152:0.0 153:0.0 154:0.0 155:1.0 156:1.0 157:1.0 158:1.0 159:1.0 160:0.0 161:1.0 162:1.0 163:1.0 164:1.0 165:0.0 166:0.0 167:0.0 168:0.0 169:0.0 170:0.0 171:1.0 172:1.0 173:1.0 174:1.0 175:0.0 176:0.0 177:1.0 178:1.0 179:1.0 180:1.0 181:1.0 182:0.0 183:0.0 184:0.0 185:0.0 186:1.0 187:1.0 188:1.0 189:1.0 190:1.0 191:0.0 192:0.0 193:0.0 194:1.0 195:1.0 196:1.0 197:1.0 198:1.0 199:1.0 200:1.0 201:1.0 202:1.0 203:1.0 204:1.0 205:1.0 206:1.0 207:0.0 208:0.0 209:0.0 210:0.0 211:0.0 212:0.0 213:0.0 214:0.0 215:0.0 216:0.0 217:0.0 218:0.0 219:0.0 220:0.0 221:0.0 222:0.0 223:0.0 224:0.0 225:0.0 226:0.0 227:0.0 228:0.0 229:0.0 230:0.0 231:0.0 232:0.0 233:0.0 234:0.0 235:0.0 236:0.0 237:0.0 238:0.0 239:0.0 240:0.0 241:0.0 242:0.0 243:0.0 244:0.0 245:0.0 246:0.0 247:0.0 248:0.0 249:0.0 250:0.0 251:0.0 252:0.0 253:0.0 254:0.0 255:0.0 256:0.0 
0.0 5.595101425871218E-4 0.0 0.0 0.0 0.007938351646594649 0.0013670246994557647 0.0 0.0 0.010253193385521988 0.0 0.0 0.0 0.0012146246978367759 0.0 0.006409973700699107 0.0 0.0 0.0 0.0 0.016777735581683453 0.0 0.0 0.00990394804131344 0.009245035783364232 0.0 0.0 0.005808584527032908 0.0014685432211945307 0.0014065571440735258 0.0010488807695197024 1:0.0 2:0.0 3:0.0 4:0.0 5:0.0 6:0.0 7:0.0 8:0.0 9:0.0 10:1.0 11:1.0 12:1.0 13:0.0 14:0.0 15:0.0 16:0.0 17:0.0 18:0.0 19:0.0 20:0.0 21:0.0 22:0.0 23:0.0 24:0.0 25:1.0 26:1.0 27:1.0 28:1.0 29:1.0 30:0.0 31:0.0 32:0.0 33:0.0 34:0.0 35:0.0 36:0.0 37:0.0 38:0.0 39:0.0 40:1.0 41:1.0 42:1.0 43:1.0 44:1.0 45:1.0 46:1.0 47:0.0 48:0.0 49:0.0 50:0.0 51:0.0 52:0.0 53:0.0 54:0.0 55:0.0 56:1.0 57:1.0 58:1.0 59:1.0 60:1.0 61:1.0 62:1.0 63:0.0 64:0.0 65:0.0 66:0.0 67:0.0 68:0.0 69:0.0 70:0.0 71:1.0 72:1.0 73:1.0 74:1.0 75:1.0 76:1.0 77:1.0 78:1.0 79:0.0 80:0.0 81:0.0 82:0.0 83:0.0 84:0.0 85:0.0 86:1.0 87:1.0 88:1.0 89:1.0 90:0.0 91:0.0 92:1.0 93:1.0 94:1.0 95:0.0 96:0.0 97:0.0 98:0.0 99:0.0 100:0.0 101:1.0 102:1.0 103:1.0 104:1.0 105:0.0 106:0.0 107:0.0 108:1.0 109:1.0 110:1.0 111:1.0 112:0.0 113:0.0 114:0.0 115:0.0 116:0.0 117:1.0 118:1.0 119:1.0 120:1.0 121:0.0 122:0.0 123:0.0 124:1.0 125:1.0 126:1.0 127:1.0 128:0.0 129:0.0 130:0.0 131:0.0 132:1.0 133:1.0 134:1.0 135:1.0 136:1.0 137:1.0 138:1.0 139:1.0 140:1.0 141:1.0 142:1.0 143:1.0 144:0.0 145:0.0 146:0.0 147:0.0 148:1.0 149:1.0 150:1.0 151:1.0 152:1.0 153:1.0 154:1.0 155:1.0 156:1.0 157:1.0 158:1.0 159:1.0 160:0.0 161:0.0 162:0.0 163:1.0 164:1.0 165:1.0 166:1.0 167:1.0 168:1.0 169:1.0 170:1.0 171:1.0 172:1.0 173:1.0 174:1.0 175:1.0 176:0.0 177:0.0 178:1.0 179:1.0 180:1.0 181:1.0 182:1.0 183:0.0 184:0.0 185:0.0 186:1.0 187:1.0 188:1.0 189:1.0 190:1.0 191:1.0 192:1.0 193:1.0 194:1.0 195:1.0 196:1.0 197:1.0 198:0.0 199:0.0 200:0.0 201:0.0 202:0.0 203:1.0 204:1.0 205:1.0 206:1.0 207:1.0 208:0.0 209:0.0 210:0.0 211:0.0 212:1.0 213:0.0 214:0.0 215:0.0 216:0.0 217:0.0 218:0.0 219:1.0 220:1.0 221:0.0 222:0.0 223:0.0 224:0.0 225:0.0 226:0.0 227:0.0 228:0.0 229:0.0 230:0.0 231:0.0 232:0.0 233:0.0 234:0.0 235:0.0 236:0.0 237:0.0 238:0.0 239:0.0 240:0.0 241:0.0 242:0.0 243:0.0 244:0.0 245:0.0 246:0.0 247:0.0 248:0.0 249:0.0 250:0.0 251:0.0 252:0.0 253:0.0 254:0.0 255:0.0 256:0.0 
0.0 0.0 0.0 0.0 0.0 0.0 0.0 0.0 0.0 0.0 0.0 0.0 0.0 0.004093152592304966 0.0 0.0 0.0 0.0 0.0 0.0 0.0 0.0 0.0 0.0 0.0 0.007258280255940227 0.0 0.0 0.0 0.0 0.0 1:0.0 2:0.0 3:0.0 4:0.0 5:0.0 6:0.0 7:0.0 8:1.0 9:1.0 10:1.0 11:1.0 12:1.0 13:0.0 14:0.0 15:0.0 16:0.0 17:0.0 18:0.0 19:0.0 20:0.0 21:0.0 22:0.0 23:1.0 24:1.0 25:1.0 26:1.0 27:1.0 28:1.0 29:0.0 30:0.0 31:0.0 32:0.0 33:0.0 34:0.0 35:0.0 36:0.0 37:0.0 38:1.0 39:1.0 40:1.0 41:1.0 42:1.0 43:1.0 44:1.0 45:1.0 46:0.0 47:0.0 48:0.0 49:0.0 50:0.0 51:0.0 52:0.0 53:1.0 54:1.0 55:1.0 56:1.0 57:1.0 58:1.0 59:1.0 60:1.0 61:1.0 62:0.0 63:0.0 64:0.0 65:0.0 66:0.0 67:0.0 68:0.0 69:1.0 70:1.0 71:1.0 72:1.0 73:1.0 74:1.0 75:1.0 76:1.0 77:1.0 78:0.0 79:0.0 80:0.0 81:0.0 82:0.0 83:0.0 84:1.0 85:1.0 86:1.0 87:1.0 88:1.0 89:0.0 90:0.0 91:1.0 92:1.0 93:1.0 94:0.0 95:0.0 96:0.0 97:0.0 98:0.0 99:1.0 100:1.0 101:1.0 102:1.0 103:0.0 104:0.0 105:0.0 106:0.0 107:1.0 108:1.0 109:1.0 110:1.0 111:0.0 112:0.0 113:0.0 114:1.0 115:1.0 116:1.0 117:1.0 118:1.0 119:0.0 120:0.0 121:0.0 122:0.0 123:1.0 124:1.0 125:1.0 126:1.0 127:1.0 128:0.0 129:1.0 130:1.0 131:1.0 132:1.0 133:1.0 134:1.0 135:1.0 136:1.0 137:1.0 138:1.0 139:1.0 140:1.0 141:1.0 142:1.0 143:1.0 144:0.0 145:1.0 146:1.0 147:1.0 148:1.0 149:1.0 150:1.0 151:1.0 152:1.0 153:1.0 154:1.0 155:1.0 156:1.0 157:1.0 158:1.0 159:0.0 160:0.0 161:1.0 162:1.0 163:1.0 164:1.0 165:1.0 166:1.0 167:1.0 168:1.0 169:1.0 170:1.0 171:1.0 172:1.0 173:1.0 174:1.0 175:0.0 176:0.0 177:1.0 178:1.0 179:1.0 180:1.0 181:0.0 182:0.0 183:0.0 184:0.0 185:0.0 186:1.0 187:1.0 188:1.0 189:1.0 190:1.0 191:1.0 192:0.0 193:1.0 194:1.0 195:1.0 196:0.0 197:0.0 198:0.0 199:0.0 200:0.0 201:0.0 202:0.0 203:1.0 204:1.0 205:1.0 206:1.0 207:1.0 208:0.0 209:0.0 210:0.0 211:0.0 212:0.0 213:0.0 214:0.0 215:0.0 216:0.0 217:0.0 218:0.0 219:0.0 220:1.0 221:0.0 222:0.0 223:0.0 224:0.0 225:0.0 226:0.0 227:0.0 228:0.0 229:0.0 230:0.0 231:0.0 232:0.0 233:0.0 234:0.0 235:0.0 236:0.0 237:0.0 238:0.0 239:0.0 240:0.0 241:0.0 242:0.0 243:0.0 244:0.0 245:0.0 246:0.0 247:0.0 248:0.0 249:0.0 250:0.0 251:0.0 252:0.0 253:0.0 254:0.0 255:0.0 256:0.0 
0.0066259264610719635 0.0 0.0 0.0033391281663814236 0.0 0.002115526025345369 0.0 0.0 0.0 0.0 0.0 0.008074871543638566 0.0 0.003829053252799923 0.0 0.0 0.0 0.0 0.0 0.0 0.0 0.0 0.0 0.0 0.0 0.0 0.0 0.0 0.0 0.0 0.0 1:0.0 2:0.0 3:0.0 4:0.0 5:0.0 6:0.0 7:0.0 8:0.0 9:0.0 10:0.0 11:0.0 12:0.0 13:0.0 14:0.0 15:0.0 16:0.0 17:0.0 18:0.0 19:0.0 20:0.0 21:0.0 22:0.0 23:0.0 24:0.0 25:0.0 26:0.0 27:0.0 28:0.0 29:0.0 30:0.0 31:0.0 32:0.0 33:0.0 34:0.0 35:0.0 36:0.0 37:0.0 38:0.0 39:0.0 40:0.0 41:0.0 42:0.0 43:0.0 44:0.0 45:0.0 46:0.0 47:0.0 48:0.0 49:0.0 50:0.0 51:0.0 52:0.0 53:0.0 54:1.0 55:1.0 56:1.0 57:1.0 58:1.0 59:1.0 60:1.0 61:1.0 62:0.0 63:0.0 64:0.0 65:0.0 66:0.0 67:0.0 68:1.0 69:1.0 70:1.0 71:1.0 72:1.0 73:1.0 74:1.0 75:1.0 76:1.0 77:1.0 78:1.0 79:1.0 80:1.0 81:0.0 82:0.0 83:0.0 84:0.0 85:1.0 86:0.0 87:0.0 88:0.0 89:0.0 90:0.0 91:0.0 92:1.0 93:1.0 94:1.0 95:1.0 96:1.0 97:0.0 98:0.0 99:0.0 100:0.0 101:0.0 102:0.0 103:0.0 104:0.0 105:0.0 106:0.0 107:0.0 108:1.0 109:1.0 110:1.0 111:1.0 112:1.0 113:0.0 114:0.0 115:0.0 116:0.0 117:0.0 118:0.0 119:0.0 120:1.0 121:1.0 122:1.0 123:1.0 124:1.0 125:1.0 126:1.0 127:1.0 128:1.0 129:0.0 130:0.0 131:0.0 132:1.0 133:1.0 134:1.0 135:1.0 136:1.0 137:1.0 138:1.0 139:1.0 140:1.0 141:1.0 142:1.0 143:1.0 144:0.0 145:0.0 146:0.0 147:1.0 148:1.0 149:1.0 150:1.0 151:1.0 152:0.0 153:0.0 154:0.0 155:1.0 156:1.0 157:1.0 158:1.0 159:1.0 160:0.0 161:1.0 162:1.0 163:1.0 164:1.0 165:1.0 166:0.0 167:0.0 168:0.0 169:0.0 170:0.0 171:1.0 172:1.0 173:1.0 174:1.0 175:0.0 176:0.0 177:0.0 178:1.0 179:1.0 180:1.0 181:1.0 182:1.0 183:0.0 184:0.0 185:0.0 186:1.0 187:1.0 188:1.0 189:1.0 190:1.0 191:0.0 192:0.0 193:0.0 194:0.0 195:1.0 196:1.0 197:1.0 198:1.0 199:1.0 200:1.0 201:1.0 202:1.0 203:1.0 204:1.0 205:1.0 206:1.0 207:0.0 208:0.0 209:0.0 210:0.0 211:0.0 212:0.0 213:0.0 214:0.0 215:0.0 216:0.0 217:0.0 218:0.0 219:0.0 220:0.0 221:0.0 222:0.0 223:0.0 224:0.0 225:0.0 226:0.0 227:0.0 228:0.0 229:0.0 230:0.0 231:0.0 232:0.0 233:0.0 234:0.0 235:0.0 236:0.0 237:0.0 238:0.0 239:0.0 240:0.0 241:0.0 242:0.0 243:0.0 244:0.0 245:0.0 246:0.0 247:0.0 248:0.0 249:0.0 250:0.0 251:0.0 252:0.0 253:0.0 254:0.0 255:0.0 256:0.0 
0.0 0.0 0.0 0.0 0.0 0.0 0.0 0.0 0.0 0.0 0.0 0.0 0.0 0.0 8.239239244989261E-4 0.0 0.0 0.0 0.0 0.0 0.0 0.0 0.0 0.0 0.0 0.004309709538899378 0.0 0.0 0.0 0.0 0.0 1:0.0 2:0.0 3:0.0 4:0.0 5:0.0 6:0.0 7:0.0 8:0.0 9:1.0 10:1.0 11:1.0 12:1.0 13:0.0 14:0.0 15:0.0 16:0.0 17:0.0 18:0.0 19:0.0 20:0.0 21:0.0 22:0.0 23:0.0 24:1.0 25:1.0 26:1.0 27:1.0 28:1.0 29:1.0 30:0.0 31:0.0 32:0.0 33:0.0 34:0.0 35:0.0 36:0.0 37:0.0 38:0.0 39:1.0 40:1.0 41:1.0 42:1.0 43:1.0 44:1.0 45:1.0 46:1.0 47:0.0 48:0.0 49:0.0 50:0.0 51:0.0 52:0.0 53:0.0 54:1.0 55:1.0 56:1.0 57:1.0 58:1.0 59:1.0 60:1.0 61:1.0 62:0.0 63:0.0 64:0.0 65:0.0 66:0.0 67:0.0 68:0.0 69:1.0 70:1.0 71:1.0 72:1.0 73:1.0 74:1.0 75:1.0 76:1.0 77:1.0 78:1.0 79:0.0 80:0.0 81:0.0 82:0.0 83:0.0 84:1.0 85:1.0 86:1.0 87:1.0 88:1.0 89:0.0 90:0.0 91:1.0 92:1.0 93:1.0 94:1.0 95:0.0 96:0.0 97:0.0 98:0.0 99:0.0 100:1.0 101:1.0 102:1.0 103:1.0 104:1.0 105:0.0 106:1.0 107:1.0 108:1.0 109:1.0 110:1.0 111:0.0 112:0.0 113:0.0 114:0.0 115:1.0 116:1.0 117:1.0 118:1.0 119:1.0 120:0.0 121:0.0 122:1.0 123:1.0 124:1.0 125:1.0 126:1.0 127:0.0 128:0.0 129:0.0 130:1.0 131:1.0 132:1.0 133:1.0 134:1.0 135:1.0 136:1.0 137:1.0 138:1.0 139:1.0 140:1.0 141:1.0 142:1.0 143:1.0 144:0.0 145:0.0 146:1.0 147:1.0 148:1.0 149:1.0 150:1.0 151:1.0 152:1.0 153:1.0 154:1.0 155:1.0 156:1.0 157:1.0 158:1.0 159:1.0 160:0.0 161:1.0 162:1.0 163:1.0 164:1.0 165:1.0 166:1.0 167:1.0 168:1.0 169:1.0 170:1.0 171:1.0 172:1.0 173:1.0 174:1.0 175:0.0 176:0.0 177:1.0 178:1.0 179:1.0 180:1.0 181:0.0 182:0.0 183:0.0 184:0.0 185:0.0 186:0.0 187:1.0 188:1.0 189:1.0 190:1.0 191:1.0 192:0.0 193:1.0 194:1.0 195:1.0 196:0.0 197:0.0 198:0.0 199:0.0 200:0.0 201:0.0 202:0.0 203:0.0 204:1.0 205:1.0 206:1.0 207:1.0 208:1.0 209:0.0 210:0.0 211:0.0 212:0.0 213:0.0 214:0.0 215:0.0 216:0.0 217:0.0 218:0.0 219:0.0 220:1.0 221:1.0 222:0.0 223:0.0 224:0.0 225:0.0 226:0.0 227:0.0 228:0.0 229:0.0 230:0.0 231:0.0 232:0.0 233:0.0 234:0.0 235:0.0 236:0.0 237:0.0 238:0.0 239:0.0 240:0.0 241:0.0 242:0.0 243:0.0 244:0.0 245:0.0 246:0.0 247:0.0 248:0.0 249:0.0 250:0.0 251:0.0 252:0.0 253:0.0 254:0.0 255:0.0 256:0.0 
0.014830168969786346 0.01212427133603306 0.02216586632881065 0.013453442718999504 0.020110826432218575 0.017006071618738166 0.018464498698204927 0.02411347187918379 0.00588689043048413 0.03364174899889764 0.01630195838304673 0.006279077169578071 0.0018311992344533011 0.009683924738563632 0.02445784612099288 5.571390010452866E-4 0.016468223304936396 0.011164926120784764 0.017975738425897916 0.02327633214166002 0.022486627914413863 0.018186644218433596 0.012540814593360943 0.010674853538133354 0.008405546590713561 0.016288569237060235 0.016178041402085477 0.015316741308403761 0.010826187800417171 0.010605533478143707 0.015391295400845812 1:1.0 2:1.0 3:1.0 4:0.0 5:0.0 6:1.0 7:1.0 8:1.0 9:1.0 10:1.0 11:0.0 12:0.0 13:0.0 14:0.0 15:0.0 16:0.0 17:1.0 18:1.0 19:1.0 20:0.0 21:1.0 22:1.0 23:1.0 24:1.0 25:1.0 26:1.0 27:1.0 28:0.0 29:0.0 30:0.0 31:0.0 32:0.0 33:1.0 34:1.0 35:1.0 36:0.0 37:1.0 38:1.0 39:1.0 40:1.0 41:1.0 42:1.0 43:1.0 44:1.0 45:0.0 46:0.0 47:0.0 48:0.0 49:1.0 50:1.0 51:1.0 52:1.0 53:1.0 54:1.0 55:1.0 56:1.0 57:1.0 58:1.0 59:1.0 60:1.0 61:0.0 62:0.0 63:0.0 64:0.0 65:1.0 66:1.0 67:1.0 68:1.0 69:1.0 70:1.0 71:1.0 72:1.0 73:1.0 74:1.0 75:1.0 76:1.0 77:0.0 78:0.0 79:0.0 80:0.0 81:0.0 82:1.0 83:1.0 84:1.0 85:1.0 86:1.0 87:1.0 88:1.0 89:1.0 90:1.0 91:1.0 92:1.0 93:0.0 94:0.0 95:0.0 96:0.0 97:1.0 98:1.0 99:1.0 100:1.0 101:0.0 102:0.0 103:0.0 104:0.0 105:1.0 106:1.0 107:1.0 108:1.0 109:1.0 110:1.0 111:0.0 112:0.0 113:1.0 114:1.0 115:1.0 116:1.0 117:0.0 118:0.0 119:0.0 120:0.0 121:1.0 122:1.0 123:1.0 124:1.0 125:1.0 126:0.0 127:0.0 128:0.0 129:1.0 130:1.0 131:1.0 132:1.0 133:1.0 134:1.0 135:1.0 136:1.0 137:1.0 138:1.0 139:1.0 140:1.0 141:0.0 142:0.0 143:0.0 144:0.0 145:1.0 146:1.0 147:1.0 148:1.0 149:1.0 150:1.0 151:1.0 152:1.0 153:1.0 154:1.0 155:1.0 156:1.0 157:0.0 158:0.0 159:0.0 160:0.0 161:1.0 162:1.0 163:1.0 164:1.0 165:1.0 166:1.0 167:1.0 168:1.0 169:1.0 170:1.0 171:1.0 172:1.0 173:1.0 174:0.0 175:0.0 176:0.0 177:1.0 178:1.0 179:0.0 180:0.0 181:0.0 182:0.0 183:0.0 184:0.0 185:1.0 186:1.0 187:1.0 188:1.0 189:1.0 190:0.0 191:0.0 192:0.0 193:1.0 194:0.0 195:0.0 196:0.0 197:0.0 198:0.0 199:0.0 200:0.0 201:0.0 202:1.0 203:1.0 204:1.0 205:1.0 206:0.0 207:0.0 208:0.0 209:0.0 210:0.0 211:0.0 212:0.0 213:0.0 214:0.0 215:0.0 216:0.0 217:0.0 218:0.0 219:0.0 220:0.0 221:0.0 222:0.0 223:0.0 224:0.0 225:0.0 226:0.0 227:0.0 228:0.0 229:0.0 230:0.0 231:0.0 232:0.0 233:0.0 234:0.0 235:0.0 236:0.0 237:0.0 238:0.0 239:0.0 240:0.0 241:0.0 242:0.0 243:0.0 244:0.0 245:0.0 246:0.0 247:0.0 248:0.0 249:0.0 250:0.0 251:0.0 252:0.0 253:0.0 254:0.0 255:0.0 256:0.0 
0.0 0.0 0.0 0.0 0.0 0.0 0.0 0.0 0.0 0.0 0.0 0.0 0.001045916965453743 0.0 0.0 0.0 0.0 0.0 0.0 0.0 0.0 0.0 0.0 0.0 0.0 0.0 0.0 0.0 0.0 0.0 0.0 1:0.0 2:0.0 3:0.0 4:0.0 5:0.0 6:0.0 7:0.0 8:0.0 9:0.0 10:0.0 11:0.0 12:0.0 13:0.0 14:0.0 15:0.0 16:0.0 17:0.0 18:0.0 19:0.0 20:0.0 21:0.0 22:0.0 23:0.0 24:0.0 25:0.0 26:0.0 27:0.0 28:0.0 29:0.0 30:0.0 31:0.0 32:0.0 33:0.0 34:0.0 35:0.0 36:0.0 37:0.0 38:0.0 39:0.0 40:0.0 41:0.0 42:0.0 43:0.0 44:0.0 45:0.0 46:0.0 47:0.0 48:0.0 49:0.0 50:0.0 51:0.0 52:1.0 53:1.0 54:1.0 55:1.0 56:1.0 57:1.0 58:1.0 59:1.0 60:1.0 61:1.0 62:0.0 63:0.0 64:0.0 65:0.0 66:1.0 67:1.0 68:1.0 69:1.0 70:1.0 71:1.0 72:1.0 73:1.0 74:1.0 75:1.0 76:1.0 77:1.0 78:1.0 79:1.0 80:1.0 81:0.0 82:0.0 83:1.0 84:0.0 85:0.0 86:0.0 87:0.0 88:0.0 89:0.0 90:0.0 91:1.0 92:1.0 93:1.0 94:1.0 95:1.0 96:1.0 97:0.0 98:0.0 99:0.0 100:0.0 101:0.0 102:0.0 103:0.0 104:0.0 105:0.0 106:0.0 107:1.0 108:1.0 109:1.0 110:1.0 111:1.0 112:1.0 113:0.0 114:0.0 115:0.0 116:0.0 117:0.0 118:1.0 119:1.0 120:1.0 121:1.0 122:1.0 123:1.0 124:1.0 125:1.0 126:1.0 127:1.0 128:1.0 129:1.0 130:1.0 131:1.0 132:1.0 133:1.0 134:1.0 135:1.0 136:1.0 137:1.0 138:1.0 139:1.0 140:1.0 141:1.0 142:1.0 143:1.0 144:0.0 145:1.0 146:1.0 147:1.0 148:1.0 149:1.0 150:0.0 151:0.0 152:0.0 153:0.0 154:1.0 155:1.0 156:1.0 157:1.0 158:1.0 159:1.0 160:0.0 161:1.0 162:1.0 163:1.0 164:0.0 165:0.0 166:0.0 167:0.0 168:0.0 169:0.0 170:1.0 171:1.0 172:1.0 173:1.0 174:1.0 175:0.0 176:0.0 177:1.0 178:1.0 179:1.0 180:1.0 181:0.0 182:0.0 183:0.0 184:0.0 185:1.0 186:1.0 187:1.0 188:1.0 189:1.0 190:1.0 191:0.0 192:0.0 193:1.0 194:1.0 195:1.0 196:1.0 197:1.0 198:1.0 199:1.0 200:1.0 201:1.0 202:1.0 203:1.0 204:1.0 205:1.0 206:1.0 207:0.0 208:0.0 209:0.0 210:0.0 211:0.0 212:0.0 213:0.0 214:0.0 215:0.0 216:0.0 217:0.0 218:0.0 219:0.0 220:0.0 221:0.0 222:0.0 223:0.0 224:0.0 225:0.0 226:0.0 227:0.0 228:0.0 229:0.0 230:0.0 231:0.0 232:0.0 233:0.0 234:0.0 235:0.0 236:0.0 237:0.0 238:0.0 239:0.0 240:0.0 241:0.0 242:0.0 243:0.0 244:0.0 245:0.0 246:0.0 247:0.0 248:0.0 249:0.0 250:0.0 251:0.0 252:0.0 253:0.0 254:0.0 255:0.0 256:0.0 
0.0 0.00912879126183875 0.00663834356761596 0.0 0.005838655560079863 2.865050227369761E-4 0.007754002864055281 0.007525975053249809 0.009568840648007192 0.0 0.0075300173045667685 0.017153955544513995 0.009498025238260741 0.004919786484913697 0.001778369162694064 0.009734978347686605 0.0032591757645796648 4.0452934729271E-4 0.006399582745473021 0.003035701430718367 0.01114483326924759 0.014169130709124199 0.016102038580717622 0.012834865694113245 0.008327775827086069 0.004261204493002263 0.0 0.0 0.0037356844089392145 0.0 0.0 1:0.0 2:0.0 3:0.0 4:0.0 5:0.0 6:0.0 7:0.0 8:0.0 9:0.0 10:0.0 11:0.0 12:0.0 13:0.0 14:0.0 15:0.0 16:0.0 17:0.0 18:0.0 19:0.0 20:0.0 21:0.0 22:0.0 23:0.0 24:0.0 25:0.0 26:0.0 27:0.0 28:0.0 29:0.0 30:0.0 31:0.0 32:0.0 33:0.0 34:0.0 35:0.0 36:0.0 37:0.0 38:0.0 39:0.0 40:0.0 41:0.0 42:0.0 43:0.0 44:0.0 45:0.0 46:0.0 47:0.0 48:0.0 49:0.0 50:0.0 51:0.0 52:0.0 53:0.0 54:0.0 55:0.0 56:1.0 57:1.0 58:1.0 59:1.0 60:1.0 61:1.0 62:1.0 63:0.0 64:0.0 65:0.0 66:0.0 67:0.0 68:0.0 69:0.0 70:0.0 71:1.0 72:1.0 73:1.0 74:1.0 75:1.0 76:1.0 77:1.0 78:1.0 79:1.0 80:1.0 81:0.0 82:0.0 83:0.0 84:0.0 85:0.0 86:0.0 87:0.0 88:0.0 89:0.0 90:0.0 91:0.0 92:0.0 93:1.0 94:1.0 95:1.0 96:1.0 97:0.0 98:0.0 99:0.0 100:0.0 101:0.0 102:0.0 103:0.0 104:0.0 105:0.0 106:0.0 107:0.0 108:0.0 109:1.0 110:1.0 111:1.0 112:1.0 113:0.0 114:0.0 115:0.0 116:0.0 117:0.0 118:0.0 119:0.0 120:0.0 121:0.0 122:1.0 123:1.0 124:1.0 125:1.0 126:1.0 127:1.0 128:1.0 129:0.0 130:0.0 131:0.0 132:0.0 133:0.0 134:1.0 135:1.0 136:1.0 137:1.0 138:1.0 139:1.0 140:1.0 141:1.0 142:1.0 143:1.0 144:0.0 145:0.0 146:0.0 147:0.0 148:0.0 149:1.0 150:1.0 151:1.0 152:1.0 153:1.0 154:0.0 155:0.0 156:1.0 157:1.0 158:1.0 159:1.0 160:0.0 161:0.0 162:0.0 163:0.0 164:1.0 165:1.0 166:1.0 167:1.0 168:0.0 169:0.0 170:0.0 171:0.0 172:1.0 173:1.0 174:1.0 175:1.0 176:0.0 177:0.0 178:0.0 179:0.0 180:1.0 181:1.0 182:1.0 183:1.0 184:1.0 185:0.0 186:0.0 187:0.0 188:1.0 189:1.0 190:1.0 191:1.0 192:0.0 193:0.0 194:0.0 195:0.0 196:0.0 197:0.0 198:1.0 199:1.0 200:1.0 201:1.0 202:1.0 203:1.0 204:1.0 205:1.0 206:1.0 207:1.0 208:0.0 209:0.0 210:1.0 211:1.0 212:0.0 213:0.0 214:0.0 215:0.0 216:0.0 217:0.0 218:0.0 219:0.0 220:0.0 221:0.0 222:0.0 223:0.0 224:0.0 225:1.0 226:1.0 227:1.0 228:0.0 229:0.0 230:0.0 231:0.0 232:0.0 233:0.0 234:0.0 235:0.0 236:0.0 237:0.0 238:0.0 239:0.0 240:0.0 241:0.0 242:0.0 243:0.0 244:0.0 245:0.0 246:0.0 247:0.0 248:0.0 249:0.0 250:0.0 251:0.0 252:0.0 253:0.0 254:0.0 255:0.0 256:0.0 
0.0033215933413185813 0.0026534727695063263 0.015349358696326653 0.009073966556215883 0.0041886040365195125 0.0 0.013972446937218604 0.0017703087061899437 0.01072831185942335 0.008142830320718308 0.0 0.030758514213953866 0.008711727768389478 0.0 0.0019773502123972622 0.013005272779421845 0.006388984477548921 0.0 0.0 0.0 0.005099781805713332 0.0 0.0 0.0 0.0 0.011657817441364631 0.01192669851274553 0.017837415106406504 0.0 0.0 0.0 1:0.0 2:0.0 3:0.0 4:0.0 5:0.0 6:0.0 7:0.0 8:0.0 9:0.0 10:1.0 11:1.0 12:1.0 13:1.0 14:1.0 15:0.0 16:0.0 17:0.0 18:0.0 19:0.0 20:0.0 21:0.0 22:0.0 23:0.0 24:0.0 25:1.0 26:1.0 27:1.0 28:1.0 29:1.0 30:1.0 31:0.0 32:0.0 33:0.0 34:0.0 35:0.0 36:0.0 37:0.0 38:0.0 39:0.0 40:1.0 41:1.0 42:1.0 43:1.0 44:1.0 45:1.0 46:1.0 47:0.0 48:0.0 49:0.0 50:0.0 51:0.0 52:0.0 53:0.0 54:0.0 55:1.0 56:1.0 57:1.0 58:1.0 59:1.0 60:1.0 61:1.0 62:1.0 63:0.0 64:0.0 65:0.0 66:0.0 67:0.0 68:0.0 69:0.0 70:1.0 71:1.0 72:1.0 73:1.0 74:1.0 75:1.0 76:1.0 77:1.0 78:1.0 79:0.0 80:0.0 81:0.0 82:0.0 83:0.0 84:0.0 85:1.0 86:1.0 87:1.0 88:1.0 89:1.0 90:1.0 91:0.0 92:1.0 93:1.0 94:1.0 95:0.0 96:0.0 97:0.0 98:0.0 99:0.0 100:1.0 101:1.0 102:1.0 103:1.0 104:1.0 105:0.0 106:0.0 107:0.0 108:1.0 109:1.0 110:1.0 111:1.0 112:0.0 113:0.0 114:0.0 115:0.0 116:1.0 117:1.0 118:1.0 119:1.0 120:1.0 121:0.0 122:0.0 123:0.0 124:1.0 125:1.0 126:1.0 127:1.0 128:0.0 129:0.0 130:0.0 131:1.0 132:1.0 133:1.0 134:1.0 135:1.0 136:1.0 137:1.0 138:1.0 139:1.0 140:1.0 141:1.0 142:1.0 143:1.0 144:0.0 145:0.0 146:0.0 147:1.0 148:1.0 149:1.0 150:1.0 151:1.0 152:1.0 153:1.0 154:1.0 155:1.0 156:1.0 157:1.0 158:1.0 159:1.0 160:0.0 161:0.0 162:0.0 163:1.0 164:1.0 165:1.0 166:1.0 167:1.0 168:1.0 169:1.0 170:1.0 171:1.0 172:1.0 173:1.0 174:1.0 175:1.0 176:0.0 177:0.0 178:1.0 179:1.0 180:1.0 181:1.0 182:1.0 183:0.0 184:0.0 185:0.0 186:1.0 187:0.0 188:1.0 189:1.0 190:1.0 191:1.0 192:1.0 193:1.0 194:1.0 195:1.0 196:1.0 197:1.0 198:0.0 199:0.0 200:0.0 201:0.0 202:0.0 203:0.0 204:1.0 205:1.0 206:1.0 207:1.0 208:1.0 209:0.0 210:0.0 211:0.0 212:0.0 213:0.0 214:0.0 215:0.0 216:0.0 217:0.0 218:0.0 219:0.0 220:0.0 221:0.0 222:0.0 223:0.0 224:0.0 225:0.0 226:0.0 227:0.0 228:0.0 229:0.0 230:0.0 231:0.0 232:0.0 233:0.0 234:0.0 235:0.0 236:0.0 237:0.0 238:0.0 239:0.0 240:0.0 241:0.0 242:0.0 243:0.0 244:0.0 245:0.0 246:0.0 247:0.0 248:0.0 249:0.0 250:0.0 251:0.0 252:0.0 253:0.0 254:0.0 255:0.0 256:0.0 
0.003726993829591937 0.006321817749388808 0.0019720117225872054 0.00792166791363893 0.0 0.007786032751300741 0.014080220531858256 2.4287966452057292E-4 9.595344000220222E-4 0.002540994597941924 0.009810028982741184 0.01717325832230166 0.0 0.004181710972794262 0.0 0.027138284966638983 0.007243818178590491 0.009431107991904225 0.010840703128212515 0.025455245888881074 0.006926285361575428 0.00982836138915533 0.006708562430763305 0.007492950675384976 0.002098075698579223 0.00476518447829261 0.011138941392714142 0.006711049211793063 0.0 0.005141882153115642 0.007375026155477393 1:0.0 2:0.0 3:0.0 4:0.0 5:0.0 6:0.0 7:0.0 8:0.0 9:0.0 10:0.0 11:0.0 12:0.0 13:0.0 14:0.0 15:0.0 16:0.0 17:0.0 18:0.0 19:0.0 20:0.0 21:0.0 22:0.0 23:0.0 24:0.0 25:0.0 26:0.0 27:0.0 28:0.0 29:0.0 30:0.0 31:0.0 32:0.0 33:0.0 34:0.0 35:1.0 36:1.0 37:0.0 38:0.0 39:0.0 40:0.0 41:0.0 42:0.0 43:0.0 44:0.0 45:0.0 46:0.0 47:0.0 48:0.0 49:0.0 50:1.0 51:1.0 52:1.0 53:0.0 54:0.0 55:0.0 56:1.0 57:1.0 58:1.0 59:1.0 60:1.0 61:1.0 62:1.0 63:1.0 64:0.0 65:0.0 66:1.0 67:1.0 68:1.0 69:0.0 70:1.0 71:1.0 72:1.0 73:1.0 74:1.0 75:1.0 76:1.0 77:1.0 78:1.0 79:1.0 80:1.0 81:0.0 82:0.0 83:1.0 84:0.0 85:0.0 86:0.0 87:1.0 88:1.0 89:0.0 90:0.0 91:0.0 92:0.0 93:1.0 94:1.0 95:1.0 96:1.0 97:1.0 98:0.0 99:0.0 100:0.0 101:0.0 102:0.0 103:0.0 104:0.0 105:0.0 106:0.0 107:0.0 108:0.0 109:1.0 110:1.0 111:1.0 112:1.0 113:1.0 114:0.0 115:0.0 116:0.0 117:0.0 118:0.0 119:1.0 120:0.0 121:1.0 122:1.0 123:1.0 124:1.0 125:1.0 126:1.0 127:1.0 128:1.0 129:0.0 130:0.0 131:0.0 132:0.0 133:1.0 134:1.0 135:1.0 136:1.0 137:1.0 138:1.0 139:1.0 140:1.0 141:1.0 142:1.0 143:1.0 144:0.0 145:0.0 146:0.0 147:0.0 148:1.0 149:1.0 150:1.0 151:1.0 152:1.0 153:0.0 154:1.0 155:1.0 156:1.0 157:1.0 158:1.0 159:1.0 160:0.0 161:0.0 162:0.0 163:0.0 164:1.0 165:1.0 166:1.0 167:1.0 168:0.0 169:0.0 170:0.0 171:0.0 172:1.0 173:1.0 174:1.0 175:1.0 176:0.0 177:0.0 178:0.0 179:0.0 180:1.0 181:1.0 182:1.0 183:1.0 184:1.0 185:1.0 186:0.0 187:1.0 188:1.0 189:1.0 190:1.0 191:1.0 192:0.0 193:0.0 194:0.0 195:0.0 196:0.0 197:1.0 198:1.0 199:1.0 200:1.0 201:1.0 202:1.0 203:1.0 204:1.0 205:1.0 206:1.0 207:1.0 208:0.0 209:0.0 210:0.0 211:0.0 212:0.0 213:0.0 214:0.0 215:0.0 216:1.0 217:0.0 218:0.0 219:0.0 220:0.0 221:0.0 222:0.0 223:0.0 224:0.0 225:0.0 226:0.0 227:0.0 228:0.0 229:0.0 230:0.0 231:0.0 232:0.0 233:0.0 234:0.0 235:0.0 236:0.0 237:0.0 238:0.0 239:0.0 240:0.0 241:0.0 242:0.0 243:0.0 244:0.0 245:0.0 246:0.0 247:0.0 248:0.0 249:0.0 250:0.0 251:0.0 252:0.0 253:0.0 254:0.0 255:0.0 256:0.0 
0.019745833806558036 0.010464817805275813 0.017950781113302828 0.01836418710987907 0.020193086773643114 0.006025451033315367 0.024067568335634875 0.028809540217700227 0.021298019644583492 0.02664652000664319 0.02539842415330912 0.03239701927113183 0.013921849383416436 0.0 0.02862427465213863 0.028682158229370976 0.01958716813229787 0.011105658458667058 0.014566896922595232 0.018033971800566564 0.036810853178387136 0.027393005022837754 0.019222508666720886 0.015826238375842523 0.015803865530727768 0.01171316618523141 0.012760072453043132 0.012155828721502969 0.014179299086115685 0.010594180844636437 0.004636542901279139 1:0.0 2:0.0 3:0.0 4:0.0 5:0.0 6:0.0 7:1.0 8:1.0 9:1.0 10:0.0 11:0.0 12:0.0 13:0.0 14:0.0 15:0.0 16:0.0 17:0.0 18:0.0 19:0.0 20:0.0 21:0.0 22:0.0 23:1.0 24:1.0 25:1.0 26:1.0 27:0.0 28:0.0 29:0.0 30:0.0 31:1.0 32:1.0 33:0.0 34:0.0 35:0.0 36:0.0 37:0.0 38:1.0 39:1.0 40:1.0 41:1.0 42:1.0 43:0.0 44:0.0 45:0.0 46:0.0 47:1.0 48:0.0 49:0.0 50:0.0 51:0.0 52:0.0 53:0.0 54:1.0 55:1.0 56:1.0 57:1.0 58:1.0 59:1.0 60:0.0 61:0.0 62:0.0 63:0.0 64:0.0 65:0.0 66:0.0 67:0.0 68:0.0 69:1.0 70:1.0 71:1.0 72:1.0 73:1.0 74:1.0 75:1.0 76:1.0 77:0.0 78:0.0 79:0.0 80:0.0 81:0.0 82:0.0 83:0.0 84:1.0 85:1.0 86:1.0 87:1.0 88:1.0 89:1.0 90:1.0 91:1.0 92:1.0 93:0.0 94:0.0 95:0.0 96:0.0 97:0.0 98:0.0 99:0.0 100:1.0 101:1.0 102:1.0 103:0.0 104:1.0 105:1.0 106:1.0 107:1.0 108:0.0 109:0.0 110:0.0 111:0.0 112:0.0 113:0.0 114:0.0 115:1.0 116:1.0 117:1.0 118:1.0 119:0.0 120:0.0 121:1.0 122:1.0 123:1.0 124:0.0 125:1.0 126:0.0 127:0.0 128:0.0 129:0.0 130:0.0 131:1.0 132:1.0 133:1.0 134:1.0 135:1.0 136:1.0 137:1.0 138:1.0 139:1.0 140:0.0 141:1.0 142:1.0 143:1.0 144:1.0 145:0.0 146:0.0 147:1.0 148:1.0 149:1.0 150:1.0 151:1.0 152:1.0 153:1.0 154:1.0 155:1.0 156:0.0 157:0.0 158:1.0 159:1.0 160:1.0 161:0.0 162:1.0 163:1.0 164:1.0 165:1.0 166:1.0 167:1.0 168:1.0 169:1.0 170:1.0 171:1.0 172:0.0 173:0.0 174:0.0 175:0.0 176:1.0 177:0.0 178:1.0 179:1.0 180:1.0 181:0.0 182:0.0 183:0.0 184:0.0 185:1.0 186:1.0 187:1.0 188:0.0 189:0.0 190:0.0 191:0.0 192:1.0 193:1.0 194:1.0 195:1.0 196:0.0 197:0.0 198:0.0 199:0.0 200:0.0 201:0.0 202:1.0 203:1.0 204:0.0 205:0.0 206:0.0 207:0.0 208:1.0 209:0.0 210:0.0 211:0.0 212:0.0 213:0.0 214:0.0 215:0.0 216:0.0 217:0.0 218:0.0 219:0.0 220:0.0 221:0.0 222:0.0 223:0.0 224:1.0 225:0.0 226:0.0 227:0.0 228:0.0 229:0.0 230:0.0 231:0.0 232:0.0 233:0.0 234:0.0 235:0.0 236:0.0 237:0.0 238:0.0 239:0.0 240:0.0 241:0.0 242:0.0 243:0.0 244:0.0 245:0.0 246:0.0 247:0.0 248:0.0 249:0.0 250:0.0 251:0.0 252:0.0 253:0.0 254:0.0 255:0.0 256:0.0 
0.018657396404108652 0.001185352593416227 0.016724307907709086 0.022900271676852994 0.005459906990848339 0.013645249240305461 0.01706643774603534 0.008856466703552222 0.0020503366049889186 0.011216463296317087 0.0 0.015396944896217546 0.023179669202844845 0.015711238304773698 0.008613250790462455 7.759124417077722E-4 0.0 0.015664845333699544 0.009082385727652721 0.008600547393196373 0.00887871128211656 0.008332690676439198 0.009812121691408751 0.0 0.002660971406516332 0.0035510206297626142 0.0029805912108670676 0.0 0.0 0.0 0.002963076611685681 1:0.0 2:0.0 3:0.0 4:0.0 5:0.0 6:0.0 7:0.0 8:0.0 9:0.0 10:0.0 11:0.0 12:0.0 13:0.0 14:0.0 15:0.0 16:0.0 17:0.0 18:0.0 19:0.0 20:0.0 21:0.0 22:0.0 23:0.0 24:0.0 25:0.0 26:0.0 27:0.0 28:0.0 29:0.0 30:0.0 31:0.0 32:0.0 33:0.0 34:0.0 35:0.0 36:0.0 37:0.0 38:0.0 39:0.0 40:0.0 41:0.0 42:0.0 43:0.0 44:0.0 45:0.0 46:0.0 47:0.0 48:0.0 49:0.0 50:0.0 51:0.0 52:0.0 53:1.0 54:1.0 55:1.0 56:1.0 57:1.0 58:1.0 59:1.0 60:1.0 61:1.0 62:0.0 63:0.0 64:0.0 65:0.0 66:0.0 67:0.0 68:1.0 69:1.0 70:1.0 71:1.0 72:1.0 73:1.0 74:1.0 75:1.0 76:1.0 77:1.0 78:1.0 79:1.0 80:1.0 81:0.0 82:0.0 83:0.0 84:1.0 85:0.0 86:0.0 87:0.0 88:0.0 89:0.0 90:0.0 91:1.0 92:1.0 93:1.0 94:1.0 95:1.0 96:1.0 97:0.0 98:0.0 99:0.0 100:0.0 101:0.0 102:0.0 103:0.0 104:0.0 105:0.0 106:0.0 107:1.0 108:1.0 109:1.0 110:1.0 111:1.0 112:1.0 113:0.0 114:0.0 115:0.0 116:0.0 117:0.0 118:0.0 119:1.0 120:1.0 121:1.0 122:1.0 123:1.0 124:1.0 125:1.0 126:1.0 127:1.0 128:1.0 129:0.0 130:0.0 131:1.0 132:1.0 133:1.0 134:1.0 135:1.0 136:1.0 137:1.0 138:1.0 139:1.0 140:1.0 141:1.0 142:1.0 143:0.0 144:0.0 145:0.0 146:1.0 147:1.0 148:1.0 149:1.0 150:1.0 151:0.0 152:0.0 153:0.0 154:1.0 155:1.0 156:1.0 157:1.0 158:1.0 159:0.0 160:0.0 161:1.0 162:1.0 163:1.0 164:1.0 165:0.0 166:0.0 167:0.0 168:0.0 169:0.0 170:1.0 171:1.0 172:1.0 173:1.0 174:0.0 175:0.0 176:0.0 177:1.0 178:1.0 179:1.0 180:1.0 181:1.0 182:0.0 183:0.0 184:0.0 185:1.0 186:1.0 187:1.0 188:1.0 189:1.0 190:0.0 191:0.0 192:0.0 193:0.0 194:1.0 195:1.0 196:1.0 197:1.0 198:1.0 199:1.0 200:1.0 201:1.0 202:1.0 203:1.0 204:1.0 205:1.0 206:0.0 207:0.0 208:0.0 209:0.0 210:0.0 211:0.0 212:0.0 213:0.0 214:0.0 215:0.0 216:0.0 217:0.0 218:0.0 219:0.0 220:0.0 221:0.0 222:0.0 223:0.0 224:0.0 225:0.0 226:0.0 227:0.0 228:0.0 229:0.0 230:0.0 231:0.0 232:0.0 233:0.0 234:0.0 235:0.0 236:0.0 237:0.0 238:0.0 239:0.0 240:0.0 241:0.0 242:0.0 243:0.0 244:0.0 245:0.0 246:0.0 247:0.0 248:0.0 249:0.0 250:0.0 251:0.0 252:0.0 253:0.0 254:0.0 255:0.0 256:0.0 
0.0 0.005395802129204487 0.0 0.01014978215579049 0.0 0.012358066418999728 0.0 0.0 0.0071312263318366155 0.0 0.0 0.0 0.0 0.009363336175026316 0.0 0.0 0.0 0.020290079544906317 0.0 0.0 0.0 0.0 4.2831414757074805E-4 0.0 0.0 0.0031158455716815883 0.003910291378555546 0.0 0.0 0.0 0.0 1:0.0 2:0.0 3:0.0 4:0.0 5:0.0 6:0.0 7:0.0 8:0.0 9:0.0 10:0.0 11:0.0 12:0.0 13:0.0 14:0.0 15:0.0 16:0.0 17:0.0 18:0.0 19:0.0 20:0.0 21:0.0 22:0.0 23:0.0 24:0.0 25:0.0 26:0.0 27:0.0 28:0.0 29:0.0 30:0.0 31:0.0 32:0.0 33:0.0 34:0.0 35:0.0 36:0.0 37:0.0 38:0.0 39:0.0 40:0.0 41:0.0 42:0.0 43:0.0 44:0.0 45:0.0 46:0.0 47:0.0 48:0.0 49:0.0 50:0.0 51:0.0 52:1.0 53:1.0 54:1.0 55:1.0 56:1.0 57:1.0 58:1.0 59:1.0 60:1.0 61:0.0 62:0.0 63:0.0 64:0.0 65:0.0 66:1.0 67:1.0 68:1.0 69:1.0 70:1.0 71:1.0 72:1.0 73:1.0 74:1.0 75:1.0 76:1.0 77:1.0 78:1.0 79:1.0 80:0.0 81:0.0 82:0.0 83:1.0 84:0.0 85:0.0 86:0.0 87:0.0 88:0.0 89:0.0 90:1.0 91:1.0 92:1.0 93:1.0 94:1.0 95:1.0 96:0.0 97:0.0 98:0.0 99:0.0 100:0.0 101:0.0 102:0.0 103:0.0 104:0.0 105:0.0 106:1.0 107:1.0 108:1.0 109:1.0 110:1.0 111:1.0 112:0.0 113:0.0 114:0.0 115:0.0 116:0.0 117:0.0 118:1.0 119:1.0 120:1.0 121:1.0 122:1.0 123:1.0 124:1.0 125:1.0 126:1.0 127:1.0 128:0.0 129:1.0 130:1.0 131:1.0 132:1.0 133:1.0 134:1.0 135:1.0 136:1.0 137:1.0 138:1.0 139:1.0 140:1.0 141:1.0 142:1.0 143:0.0 144:0.0 145:1.0 146:1.0 147:1.0 148:1.0 149:1.0 150:0.0 151:0.0 152:0.0 153:1.0 154:1.0 155:1.0 156:1.0 157:1.0 158:1.0 159:0.0 160:0.0 161:1.0 162:1.0 163:1.0 164:0.0 165:0.0 166:0.0 167:0.0 168:0.0 169:1.0 170:1.0 171:1.0 172:1.0 173:1.0 174:0.0 175:0.0 176:0.0 177:1.0 178:1.0 179:1.0 180:1.0 181:0.0 182:0.0 183:0.0 184:0.0 185:1.0 186:1.0 187:1.0 188:1.0 189:1.0 190:1.0 191:0.0 192:0.0 193:1.0 194:1.0 195:1.0 196:1.0 197:1.0 198:1.0 199:1.0 200:1.0 201:1.0 202:1.0 203:1.0 204:1.0 205:1.0 206:0.0 207:0.0 208:0.0 209:0.0 210:0.0 211:0.0 212:0.0 213:0.0 214:0.0 215:0.0 216:0.0 217:1.0 218:0.0 219:0.0 220:0.0 221:0.0 222:0.0 223:0.0 224:0.0 225:0.0 226:0.0 227:0.0 228:0.0 229:0.0 230:0.0 231:0.0 232:0.0 233:0.0 234:0.0 235:0.0 236:0.0 237:0.0 238:0.0 239:0.0 240:0.0 241:0.0 242:0.0 243:0.0 244:0.0 245:0.0 246:0.0 247:0.0 248:0.0 249:0.0 250:0.0 251:0.0 252:0.0 253:0.0 254:0.0 255:0.0 256:0.0 
0.0 0.0 0.0 1.3026332427667262E-5 0.0 0.004178467102911597 0.0 0.0 0.0 9.192462507807128E-4 0.0 0.012961889115227863 0.0 0.006610871391061632 0.0 0.0 0.0 0.009112582004945115 0.0 0.03868679498499691 0.0 0.0 0.0 0.0 0.0 0.0 0.00506753467305415 0.0 0.0 0.0 0.0 1:1.0 2:1.0 3:1.0 4:1.0 5:0.0 6:0.0 7:0.0 8:1.0 9:1.0 10:1.0 11:1.0 12:0.0 13:0.0 14:0.0 15:0.0 16:0.0 17:1.0 18:1.0 19:1.0 20:1.0 21:0.0 22:0.0 23:1.0 24:1.0 25:1.0 26:1.0 27:1.0 28:1.0 29:0.0 30:0.0 31:0.0 32:0.0 33:1.0 34:1.0 35:1.0 36:1.0 37:0.0 38:1.0 39:1.0 40:1.0 41:1.0 42:1.0 43:1.0 44:1.0 45:1.0 46:0.0 47:0.0 48:0.0 49:1.0 50:1.0 51:1.0 52:1.0 53:1.0 54:1.0 55:1.0 56:1.0 57:1.0 58:1.0 59:1.0 60:1.0 61:1.0 62:0.0 63:0.0 64:0.0 65:1.0 66:1.0 67:1.0 68:1.0 69:1.0 70:1.0 71:1.0 72:1.0 73:1.0 74:1.0 75:1.0 76:1.0 77:1.0 78:0.0 79:0.0 80:0.0 81:1.0 82:0.0 83:1.0 84:1.0 85:1.0 86:1.0 87:1.0 88:1.0 89:0.0 90:1.0 91:1.0 92:1.0 93:1.0 94:0.0 95:0.0 96:0.0 97:1.0 98:1.0 99:1.0 100:1.0 101:1.0 102:1.0 103:0.0 104:0.0 105:0.0 106:1.0 107:1.0 108:1.0 109:1.0 110:1.0 111:0.0 112:0.0 113:1.0 114:1.0 115:1.0 116:1.0 117:1.0 118:1.0 119:0.0 120:0.0 121:0.0 122:1.0 123:1.0 124:1.0 125:1.0 126:1.0 127:0.0 128:0.0 129:1.0 130:1.0 131:1.0 132:1.0 133:1.0 134:1.0 135:1.0 136:1.0 137:1.0 138:1.0 139:1.0 140:1.0 141:1.0 142:1.0 143:0.0 144:0.0 145:1.0 146:1.0 147:1.0 148:1.0 149:1.0 150:1.0 151:1.0 152:1.0 153:1.0 154:1.0 155:1.0 156:1.0 157:1.0 158:1.0 159:0.0 160:0.0 161:1.0 162:1.0 163:1.0 164:1.0 165:1.0 166:1.0 167:1.0 168:1.0 169:1.0 170:1.0 171:1.0 172:1.0 173:1.0 174:1.0 175:0.0 176:0.0 177:1.0 178:1.0 179:1.0 180:0.0 181:0.0 182:0.0 183:0.0 184:0.0 185:0.0 186:1.0 187:1.0 188:1.0 189:1.0 190:1.0 191:1.0 192:0.0 193:1.0 194:1.0 195:0.0 196:0.0 197:0.0 198:0.0 199:0.0 200:0.0 201:0.0 202:0.0 203:1.0 204:1.0 205:1.0 206:1.0 207:1.0 208:0.0 209:0.0 210:0.0 211:0.0 212:0.0 213:0.0 214:0.0 215:0.0 216:0.0 217:0.0 218:0.0 219:0.0 220:0.0 221:0.0 222:0.0 223:0.0 224:0.0 225:0.0 226:0.0 227:0.0 228:0.0 229:0.0 230:0.0 231:0.0 232:0.0 233:0.0 234:0.0 235:0.0 236:0.0 237:0.0 238:0.0 239:0.0 240:0.0 241:0.0 242:0.0 243:0.0 244:0.0 245:0.0 246:0.0 247:0.0 248:0.0 249:0.0 250:0.0 251:0.0 252:0.0 253:0.0 254:0.0 255:0.0 256:0.0 
0.0 0.0 7.94622794533264E-4 0.0 0.0 0.0 0.003634439977925805 4.805073091306388E-4 0.0 0.0 0.014816027816650774 0.0 0.0 0.0 0.0023609674406415617 0.0 0.0 0.0 0.0 0.013899146500002837 0.0 0.0 0.0 0.0 0.0 0.01431633979895025 0.0 0.0 0.0 0.009402189664265499 0.0 1:0.0 2:0.0 3:0.0 4:0.0 5:0.0 6:0.0 7:0.0 8:0.0 9:1.0 10:1.0 11:1.0 12:1.0 13:1.0 14:1.0 15:0.0 16:0.0 17:0.0 18:0.0 19:0.0 20:0.0 21:0.0 22:0.0 23:0.0 24:1.0 25:1.0 26:1.0 27:1.0 28:1.0 29:1.0 30:1.0 31:0.0 32:0.0 33:0.0 34:0.0 35:0.0 36:0.0 37:0.0 38:0.0 39:1.0 40:1.0 41:1.0 42:1.0 43:1.0 44:1.0 45:1.0 46:1.0 47:0.0 48:0.0 49:0.0 50:0.0 51:0.0 52:0.0 53:0.0 54:1.0 55:1.0 56:1.0 57:1.0 58:1.0 59:1.0 60:1.0 61:1.0 62:1.0 63:1.0 64:0.0 65:0.0 66:0.0 67:0.0 68:0.0 69:1.0 70:1.0 71:1.0 72:1.0 73:1.0 74:1.0 75:1.0 76:1.0 77:1.0 78:1.0 79:0.0 80:0.0 81:0.0 82:0.0 83:0.0 84:0.0 85:1.0 86:1.0 87:1.0 88:1.0 89:1.0 90:1.0 91:1.0 92:1.0 93:1.0 94:1.0 95:0.0 96:0.0 97:0.0 98:0.0 99:0.0 100:1.0 101:1.0 102:1.0 103:1.0 104:1.0 105:0.0 106:1.0 107:1.0 108:1.0 109:1.0 110:1.0 111:1.0 112:1.0 113:0.0 114:0.0 115:1.0 116:1.0 117:1.0 118:1.0 119:1.0 120:1.0 121:0.0 122:1.0 123:1.0 124:1.0 125:1.0 126:1.0 127:1.0 128:1.0 129:0.0 130:1.0 131:1.0 132:1.0 133:1.0 134:1.0 135:1.0 136:1.0 137:1.0 138:1.0 139:1.0 140:1.0 141:1.0 142:1.0 143:1.0 144:0.0 145:0.0 146:1.0 147:1.0 148:1.0 149:1.0 150:1.0 151:1.0 152:1.0 153:1.0 154:1.0 155:1.0 156:1.0 157:1.0 158:1.0 159:1.0 160:0.0 161:1.0 162:1.0 163:1.0 164:1.0 165:1.0 166:1.0 167:1.0 168:1.0 169:1.0 170:1.0 171:1.0 172:1.0 173:1.0 174:1.0 175:1.0 176:1.0 177:1.0 178:1.0 179:1.0 180:1.0 181:0.0 182:0.0 183:0.0 184:0.0 185:0.0 186:0.0 187:0.0 188:1.0 189:1.0 190:1.0 191:1.0 192:1.0 193:1.0 194:1.0 195:1.0 196:1.0 197:0.0 198:0.0 199:0.0 200:0.0 201:0.0 202:0.0 203:0.0 204:0.0 205:1.0 206:1.0 207:1.0 208:1.0 209:0.0 210:0.0 211:0.0 212:0.0 213:0.0 214:0.0 215:0.0 216:0.0 217:0.0 218:0.0 219:0.0 220:0.0 221:0.0 222:0.0 223:0.0 224:0.0 225:0.0 226:0.0 227:0.0 228:0.0 229:0.0 230:0.0 231:0.0 232:0.0 233:0.0 234:0.0 235:0.0 236:0.0 237:0.0 238:0.0 239:0.0 240:0.0 241:0.0 242:0.0 243:0.0 244:0.0 245:0.0 246:0.0 247:0.0 248:0.0 249:0.0 250:0.0 251:0.0 252:0.0 253:0.0 254:0.0 255:0.0 256:0.0 
0.0 0.0 0.0 0.0 0.005781641780984256 0.0 0.0 0.0 0.0 0.0 0.0 0.0 0.0 0.0 0.0 0.0 0.0 0.0 0.0 0.0 0.0 0.0 0.0 0.0 0.0 0.0 0.0 0.0 0.0 0.0 0.0 1:0.0 2:0.0 3:0.0 4:0.0 5:0.0 6:0.0 7:0.0 8:0.0 9:0.0 10:1.0 11:1.0 12:1.0 13:1.0 14:0.0 15:0.0 16:0.0 17:0.0 18:0.0 19:0.0 20:0.0 21:0.0 22:0.0 23:0.0 24:0.0 25:1.0 26:1.0 27:1.0 28:1.0 29:1.0 30:1.0 31:0.0 32:0.0 33:0.0 34:0.0 35:0.0 36:0.0 37:0.0 38:0.0 39:0.0 40:1.0 41:1.0 42:1.0 43:1.0 44:1.0 45:1.0 46:1.0 47:0.0 48:0.0 49:0.0 50:0.0 51:0.0 52:0.0 53:0.0 54:0.0 55:1.0 56:1.0 57:1.0 58:1.0 59:1.0 60:1.0 61:1.0 62:1.0 63:0.0 64:0.0 65:0.0 66:0.0 67:0.0 68:0.0 69:0.0 70:0.0 71:1.0 72:1.0 73:1.0 74:1.0 75:1.0 76:1.0 77:1.0 78:1.0 79:0.0 80:0.0 81:0.0 82:0.0 83:0.0 84:0.0 85:0.0 86:1.0 87:1.0 88:1.0 89:1.0 90:1.0 91:0.0 92:1.0 93:1.0 94:1.0 95:0.0 96:0.0 97:0.0 98:0.0 99:0.0 100:0.0 101:1.0 102:1.0 103:1.0 104:1.0 105:0.0 106:0.0 107:0.0 108:1.0 109:1.0 110:1.0 111:1.0 112:0.0 113:0.0 114:0.0 115:0.0 116:1.0 117:1.0 118:1.0 119:1.0 120:1.0 121:0.0 122:0.0 123:0.0 124:1.0 125:1.0 126:1.0 127:1.0 128:0.0 129:0.0 130:0.0 131:1.0 132:1.0 133:1.0 134:1.0 135:1.0 136:1.0 137:1.0 138:1.0 139:1.0 140:1.0 141:1.0 142:1.0 143:1.0 144:0.0 145:0.0 146:0.0 147:1.0 148:1.0 149:1.0 150:1.0 151:1.0 152:1.0 153:1.0 154:1.0 155:1.0 156:1.0 157:1.0 158:1.0 159:1.0 160:0.0 161:0.0 162:0.0 163:1.0 164:1.0 165:1.0 166:1.0 167:1.0 168:1.0 169:1.0 170:1.0 171:1.0 172:1.0 173:1.0 174:1.0 175:1.0 176:0.0 177:0.0 178:1.0 179:1.0 180:1.0 181:1.0 182:1.0 183:0.0 184:0.0 185:0.0 186:0.0 187:0.0 188:1.0 189:1.0 190:1.0 191:1.0 192:1.0 193:1.0 194:1.0 195:1.0 196:1.0 197:1.0 198:0.0 199:0.0 200:0.0 201:0.0 202:0.0 203:0.0 204:0.0 205:1.0 206:1.0 207:1.0 208:1.0 209:0.0 210:0.0 211:0.0 212:0.0 213:0.0 214:0.0 215:0.0 216:0.0 217:0.0 218:0.0 219:0.0 220:0.0 221:0.0 222:0.0 223:0.0 224:0.0 225:0.0 226:0.0 227:0.0 228:0.0 229:0.0 230:0.0 231:0.0 232:0.0 233:0.0 234:0.0 235:0.0 236:0.0 237:0.0 238:0.0 239:0.0 240:0.0 241:0.0 242:0.0 243:0.0 244:0.0 245:0.0 246:0.0 247:0.0 248:0.0 249:0.0 250:0.0 251:0.0 252:0.0 253:0.0 254:0.0 255:0.0 256:0.0 
-0.0 0.004500306470349533 0.02834945097965178 0.0 0.0 0.0 0.0 0.0 0.0 0.0 0.0 0.0 0.005206697723920171 0.003129166544896827 0.0 0.0 0.0 0.030967175716651044 0.0 0.0 0.0 0.0 0.0 0.0 0.0 0.0 0.002890083890969689 0.0 0.0 0.0 0.0 1:0.0 2:0.0 3:0.0 4:0.0 5:1.0 6:1.0 7:1.0 8:1.0 9:0.0 10:0.0 11:0.0 12:0.0 13:0.0 14:0.0 15:0.0 16:0.0 17:0.0 18:0.0 19:0.0 20:1.0 21:1.0 22:1.0 23:1.0 24:1.0 25:0.0 26:0.0 27:0.0 28:0.0 29:0.0 30:0.0 31:0.0 32:0.0 33:0.0 34:0.0 35:0.0 36:1.0 37:1.0 38:1.0 39:1.0 40:0.0 41:0.0 42:0.0 43:0.0 44:0.0 45:0.0 46:0.0 47:0.0 48:0.0 49:0.0 50:0.0 51:0.0 52:1.0 53:1.0 54:1.0 55:1.0 56:1.0 57:0.0 58:1.0 59:1.0 60:1.0 61:1.0 62:0.0 63:0.0 64:0.0 65:0.0 66:0.0 67:1.0 68:1.0 69:1.0 70:1.0 71:1.0 72:1.0 73:1.0 74:1.0 75:1.0 76:1.0 77:1.0 78:1.0 79:0.0 80:0.0 81:0.0 82:0.0 83:1.0 84:1.0 85:1.0 86:1.0 87:1.0 88:0.0 89:0.0 90:0.0 91:1.0 92:1.0 93:1.0 94:1.0 95:1.0 96:0.0 97:0.0 98:1.0 99:1.0 100:1.0 101:1.0 102:1.0 103:0.0 104:0.0 105:0.0 106:0.0 107:0.0 108:1.0 109:1.0 110:1.0 111:1.0 112:0.0 113:0.0 114:1.0 115:1.0 116:1.0 117:1.0 118:0.0 119:0.0 120:0.0 121:0.0 122:0.0 123:0.0 124:1.0 125:1.0 126:1.0 127:1.0 128:0.0 129:0.0 130:1.0 131:1.0 132:1.0 133:1.0 134:0.0 135:0.0 136:0.0 137:0.0 138:0.0 139:0.0 140:1.0 141:1.0 142:1.0 143:1.0 144:0.0 145:0.0 146:1.0 147:1.0 148:1.0 149:1.0 150:0.0 151:0.0 152:0.0 153:0.0 154:0.0 155:1.0 156:1.0 157:1.0 158:1.0 159:0.0 160:0.0 161:1.0 162:1.0 163:1.0 164:1.0 165:0.0 166:0.0 167:0.0 168:0.0 169:0.0 170:1.0 171:1.0 172:1.0 173:1.0 174:0.0 175:0.0 176:0.0 177:1.0 178:1.0 179:1.0 180:1.0 181:1.0 182:0.0 183:0.0 184:0.0 185:1.0 186:1.0 187:1.0 188:1.0 189:1.0 190:0.0 191:0.0 192:0.0 193:1.0 194:1.0 195:1.0 196:1.0 197:1.0 198:1.0 199:1.0 200:1.0 201:1.0 202:1.0 203:1.0 204:1.0 205:0.0 206:0.0 207:0.0 208:0.0 209:0.0 210:0.0 211:0.0 212:0.0 213:0.0 214:0.0 215:0.0 216:0.0 217:0.0 218:0.0 219:0.0 220:0.0 221:0.0 222:0.0 223:0.0 224:0.0 225:0.0 226:0.0 227:0.0 228:0.0 229:0.0 230:0.0 231:0.0 232:0.0 233:0.0 234:0.0 235:0.0 236:0.0 237:0.0 238:0.0 239:0.0 240:0.0 241:0.0 242:0.0 243:0.0 244:0.0 245:0.0 246:0.0 247:0.0 248:0.0 249:0.0 250:0.0 251:0.0 252:0.0 253:0.0 254:0.0 255:0.0 256:0.0 
-0.001985226108209064 0.0 0.024661191123244147 0.02373944441742758 0.005787996897576928 0.03672018169707912 0.021934458305310704 0.0 0.0 0.009320215229597048 0.01811126331412981 0.02304671381960242 0.013616369792891287 0.012590458154831648 0.026013215332096915 0.0272496169836337 0.0 0.015229652174513879 0.005201647441330245 0.001443030320978259 0.0021733190469941186 0.0 0.0012922117670748816 0.00892589075403894 0.0 0.006565394400041272 0.028177944011092474 0.0 0.0016553289540675298 0.05587014240853083 0.010996105542110043 1:0.0 2:0.0 3:0.0 4:0.0 5:0.0 6:1.0 7:1.0 8:1.0 9:1.0 10:1.0 11:1.0 12:1.0 13:1.0 14:1.0 15:0.0 16:0.0 17:0.0 18:0.0 19:0.0 20:1.0 21:1.0 22:1.0 23:1.0 24:1.0 25:1.0 26:1.0 27:1.0 28:1.0 29:1.0 30:1.0 31:1.0 32:0.0 33:0.0 34:0.0 35:0.0 36:1.0 37:1.0 38:1.0 39:1.0 40:1.0 41:1.0 42:1.0 43:1.0 44:1.0 45:1.0 46:1.0 47:1.0 48:1.0 49:0.0 50:0.0 51:0.0 52:1.0 53:1.0 54:1.0 55:1.0 56:0.0 57:0.0 58:0.0 59:0.0 60:1.0 61:1.0 62:1.0 63:1.0 64:0.0 65:0.0 66:0.0 67:1.0 68:1.0 69:1.0 70:1.0 71:1.0 72:0.0 73:0.0 74:0.0 75:1.0 76:1.0 77:1.0 78:1.0 79:0.0 80:0.0 81:0.0 82:0.0 83:1.0 84:1.0 85:1.0 86:1.0 87:1.0 88:1.0 89:1.0 90:1.0 91:1.0 92:1.0 93:1.0 94:1.0 95:0.0 96:0.0 97:0.0 98:0.0 99:1.0 100:1.0 101:1.0 102:1.0 103:1.0 104:1.0 105:1.0 106:1.0 107:1.0 108:1.0 109:1.0 110:1.0 111:0.0 112:0.0 113:0.0 114:0.0 115:1.0 116:1.0 117:1.0 118:1.0 119:1.0 120:1.0 121:1.0 122:1.0 123:1.0 124:1.0 125:1.0 126:1.0 127:0.0 128:0.0 129:0.0 130:0.0 131:1.0 132:1.0 133:1.0 134:1.0 135:0.0 136:0.0 137:0.0 138:0.0 139:1.0 140:1.0 141:1.0 142:1.0 143:0.0 144:0.0 145:0.0 146:0.0 147:1.0 148:1.0 149:1.0 150:1.0 151:0.0 152:0.0 153:0.0 154:0.0 155:1.0 156:1.0 157:1.0 158:1.0 159:0.0 160:0.0 161:0.0 162:1.0 163:1.0 164:1.0 165:1.0 166:1.0 167:0.0 168:0.0 169:0.0 170:1.0 171:1.0 172:1.0 173:1.0 174:1.0 175:0.0 176:0.0 177:0.0 178:1.0 179:1.0 180:1.0 181:1.0 182:1.0 183:1.0 184:1.0 185:1.0 186:1.0 187:1.0 188:1.0 189:1.0 190:1.0 191:0.0 192:0.0 193:1.0 194:1.0 195:1.0 196:1.0 197:1.0 198:1.0 199:1.0 200:1.0 201:1.0 202:1.0 203:1.0 204:1.0 205:1.0 206:0.0 207:0.0 208:0.0 209:0.0 210:0.0 211:0.0 212:0.0 213:0.0 214:0.0 215:0.0 216:0.0 217:1.0 218:1.0 219:0.0 220:0.0 221:0.0 222:0.0 223:0.0 224:0.0 225:0.0 226:0.0 227:0.0 228:0.0 229:0.0 230:0.0 231:0.0 232:0.0 233:0.0 234:0.0 235:0.0 236:0.0 237:0.0 238:0.0 239:0.0 240:0.0 241:0.0 242:0.0 243:0.0 244:0.0 245:0.0 246:0.0 247:0.0 248:0.0 249:0.0 250:1.0 251:0.0 252:0.0 253:0.0 254:0.0 255:0.0 256:0.0 
-0.007469272961258533 0.0 0.0 0.0 0.0 0.0 0.0 0.0 0.0 0.0 0.0038111150307290477 0.0 0.0 0.0 0.0 0.0 0.0 0.0 0.0 0.0 0.0 0.0 0.003210474073363348 0.0 0.0 3.1593202668674217E-4 0.01217530212579377 0.006778750191709289 0.0 0.0 0.0 1:0.0 2:0.0 3:0.0 4:0.0 5:0.0 6:1.0 7:1.0 8:1.0 9:1.0 10:1.0 11:1.0 12:1.0 13:1.0 14:0.0 15:0.0 16:0.0 17:0.0 18:0.0 19:0.0 20:1.0 21:1.0 22:1.0 23:1.0 24:1.0 25:1.0 26:1.0 27:1.0 28:1.0 29:1.0 30:1.0 31:1.0 32:0.0 33:0.0 34:0.0 35:0.0 36:1.0 37:1.0 38:1.0 39:1.0 40:1.0 41:1.0 42:1.0 43:1.0 44:1.0 45:1.0 46:1.0 47:1.0 48:1.0 49:0.0 50:0.0 51:0.0 52:1.0 53:1.0 54:1.0 55:1.0 56:1.0 57:0.0 58:0.0 59:0.0 60:0.0 61:1.0 62:1.0 63:1.0 64:1.0 65:0.0 66:0.0 67:0.0 68:1.0 69:1.0 70:1.0 71:1.0 72:1.0 73:1.0 74:1.0 75:1.0 76:1.0 77:1.0 78:1.0 79:1.0 80:0.0 81:0.0 82:0.0 83:0.0 84:1.0 85:1.0 86:1.0 87:1.0 88:1.0 89:1.0 90:1.0 91:1.0 92:1.0 93:1.0 94:1.0 95:0.0 96:0.0 97:0.0 98:0.0 99:1.0 100:1.0 101:1.0 102:1.0 103:1.0 104:1.0 105:1.0 106:1.0 107:1.0 108:1.0 109:1.0 110:0.0 111:0.0 112:0.0 113:0.0 114:1.0 115:1.0 116:1.0 117:1.0 118:1.0 119:1.0 120:1.0 121:1.0 122:1.0 123:1.0 124:1.0 125:1.0 126:1.0 127:0.0 128:0.0 129:0.0 130:1.0 131:1.0 132:1.0 133:1.0 134:1.0 135:1.0 136:0.0 137:0.0 138:0.0 139:0.0 140:1.0 141:1.0 142:1.0 143:1.0 144:0.0 145:0.0 146:0.0 147:1.0 148:1.0 149:1.0 150:1.0 151:0.0 152:0.0 153:0.0 154:0.0 155:0.0 156:1.0 157:1.0 158:1.0 159:1.0 160:0.0 161:1.0 162:1.0 163:1.0 164:1.0 165:1.0 166:1.0 167:0.0 168:0.0 169:1.0 170:1.0 171:1.0 172:1.0 173:1.0 174:1.0 175:0.0 176:0.0 177:1.0 178:1.0 179:1.0 180:1.0 181:1.0 182:1.0 183:1.0 184:1.0 185:1.0 186:1.0 187:1.0 188:1.0 189:1.0 190:1.0 191:0.0 192:0.0 193:1.0 194:1.0 195:1.0 196:1.0 197:1.0 198:1.0 199:1.0 200:1.0 201:1.0 202:1.0 203:1.0 204:1.0 205:1.0 206:0.0 207:0.0 208:0.0 209:0.0 210:0.0 211:0.0 212:0.0 213:0.0 214:0.0 215:0.0 216:0.0 217:0.0 218:0.0 219:0.0 220:0.0 221:0.0 222:0.0 223:0.0 224:0.0 225:0.0 226:0.0 227:0.0 228:0.0 229:0.0 230:0.0 231:0.0 232:0.0 233:0.0 234:0.0 235:0.0 236:0.0 237:0.0 238:0.0 239:0.0 240:0.0 241:0.0 242:0.0 243:0.0 244:0.0 245:0.0 246:0.0 247:0.0 248:0.0 249:0.0 250:0.0 251:0.0 252:0.0 253:0.0 254:0.0 255:0.0 256:0.0 
-0.013135050069358124 6.245221200826654E-4 0.026675710481768762 0.00597472815820657 0.016339988510798438 0.012695164739081081 0.009740395646011982 0.014083411696566687 0.005370475613943046 0.01425888121267487 0.027249713309791975 0.026717644113115807 0.012444977475925234 9.792983054764139E-4 0.020229562524289615 0.01627004505991401 0.005437171727484091 0.011314460300511578 0.0073935925665066715 0.017409835719592554 0.011775240801447208 0.017384707776017437 0.004264135842131951 0.011930330704909509 0.0016972276229190735 0.0039277003162264314 0.017044613586571587 0.012647877780697817 0.004794452006123896 0.0 0.010727532214651522 1:0.0 2:0.0 3:0.0 4:1.0 5:1.0 6:1.0 7:0.0 8:1.0 9:1.0 10:1.0 11:0.0 12:0.0 13:0.0 14:0.0 15:0.0 16:0.0 17:0.0 18:0.0 19:1.0 20:1.0 21:1.0 22:1.0 23:0.0 24:0.0 25:0.0 26:0.0 27:0.0 28:0.0 29:0.0 30:0.0 31:0.0 32:0.0 33:0.0 34:0.0 35:1.0 36:1.0 37:1.0 38:0.0 39:0.0 40:0.0 41:0.0 42:0.0 43:0.0 44:0.0 45:0.0 46:0.0 47:0.0 48:0.0 49:0.0 50:0.0 51:1.0 52:1.0 53:1.0 54:1.0 55:1.0 56:1.0 57:1.0 58:0.0 59:0.0 60:0.0 61:0.0 62:0.0 63:0.0 64:1.0 65:0.0 66:0.0 67:1.0 68:1.0 69:1.0 70:1.0 71:1.0 72:1.0 73:1.0 74:1.0 75:0.0 76:0.0 77:0.0 78:0.0 79:0.0 80:1.0 81:0.0 82:0.0 83:1.0 84:1.0 85:1.0 86:0.0 87:0.0 88:1.0 89:1.0 90:1.0 91:0.0 92:0.0 93:0.0 94:0.0 95:1.0 96:1.0 97:0.0 98:1.0 99:1.0 100:1.0 101:1.0 102:0.0 103:0.0 104:1.0 105:1.0 106:1.0 107:1.0 108:0.0 109:0.0 110:1.0 111:1.0 112:1.0 113:0.0 114:1.0 115:1.0 116:1.0 117:0.0 118:0.0 119:0.0 120:1.0 121:1.0 122:1.0 123:1.0 124:0.0 125:1.0 126:1.0 127:1.0 128:1.0 129:0.0 130:1.0 131:1.0 132:1.0 133:0.0 134:0.0 135:0.0 136:1.0 137:1.0 138:1.0 139:0.0 140:0.0 141:1.0 142:1.0 143:0.0 144:1.0 145:0.0 146:1.0 147:1.0 148:1.0 149:0.0 150:0.0 151:0.0 152:1.0 153:1.0 154:1.0 155:0.0 156:1.0 157:1.0 158:1.0 159:1.0 160:1.0 161:0.0 162:1.0 163:1.0 164:0.0 165:0.0 166:0.0 167:1.0 168:1.0 169:1.0 170:1.0 171:0.0 172:0.0 173:1.0 174:0.0 175:0.0 176:1.0 177:0.0 178:1.0 179:1.0 180:1.0 181:0.0 182:0.0 183:1.0 184:1.0 185:1.0 186:1.0 187:0.0 188:0.0 189:1.0 190:0.0 191:0.0 192:1.0 193:1.0 194:1.0 195:1.0 196:1.0 197:1.0 198:1.0 199:1.0 200:1.0 201:0.0 202:0.0 203:0.0 204:0.0 205:0.0 206:0.0 207:0.0 208:1.0 209:0.0 210:0.0 211:0.0 212:0.0 213:0.0 214:0.0 215:0.0 216:0.0 217:0.0 218:0.0 219:0.0 220:0.0 221:0.0 222:1.0 223:1.0 224:1.0 225:0.0 226:0.0 227:0.0 228:0.0 229:0.0 230:0.0 231:0.0 232:0.0 233:0.0 234:0.0 235:0.0 236:0.0 237:0.0 238:1.0 239:1.0 240:1.0 241:0.0 242:0.0 243:0.0 244:0.0 245:0.0 246:0.0 247:0.0 248:0.0 249:0.0 250:0.0 251:0.0 252:0.0 253:0.0 254:0.0 255:0.0 256:0.0 
-0.0 0.0 0.0 0.0 0.0 0.0 0.0028738145108371744 0.0 0.0 0.0 0.0 0.0 0.0 0.0 0.0 0.0 0.0 0.0 0.0 0.007814991072708714 0.0 0.0 0.0 0.0 0.0 0.0 0.0 0.0 0.0 0.0 0.0 1:0.0 2:0.0 3:0.0 4:0.0 5:1.0 6:1.0 7:1.0 8:1.0 9:0.0 10:0.0 11:0.0 12:0.0 13:0.0 14:0.0 15:0.0 16:0.0 17:0.0 18:0.0 19:0.0 20:1.0 21:1.0 22:1.0 23:1.0 24:1.0 25:0.0 26:0.0 27:0.0 28:0.0 29:0.0 30:0.0 31:0.0 32:0.0 33:0.0 34:0.0 35:0.0 36:1.0 37:1.0 38:1.0 39:1.0 40:1.0 41:0.0 42:0.0 43:0.0 44:0.0 45:0.0 46:0.0 47:0.0 48:0.0 49:0.0 50:0.0 51:0.0 52:1.0 53:1.0 54:1.0 55:1.0 56:1.0 57:0.0 58:1.0 59:1.0 60:1.0 61:1.0 62:1.0 63:0.0 64:0.0 65:0.0 66:0.0 67:1.0 68:1.0 69:1.0 70:1.0 71:1.0 72:1.0 73:1.0 74:1.0 75:1.0 76:1.0 77:1.0 78:1.0 79:1.0 80:1.0 81:0.0 82:0.0 83:1.0 84:1.0 85:1.0 86:1.0 87:1.0 88:1.0 89:0.0 90:0.0 91:1.0 92:1.0 93:1.0 94:1.0 95:1.0 96:1.0 97:0.0 98:1.0 99:1.0 100:1.0 101:1.0 102:1.0 103:1.0 104:0.0 105:0.0 106:0.0 107:0.0 108:1.0 109:1.0 110:1.0 111:1.0 112:1.0 113:1.0 114:1.0 115:1.0 116:1.0 117:1.0 118:1.0 119:0.0 120:0.0 121:0.0 122:0.0 123:0.0 124:1.0 125:1.0 126:1.0 127:1.0 128:1.0 129:0.0 130:1.0 131:1.0 132:1.0 133:1.0 134:1.0 135:0.0 136:0.0 137:0.0 138:0.0 139:0.0 140:1.0 141:1.0 142:1.0 143:1.0 144:1.0 145:0.0 146:1.0 147:1.0 148:1.0 149:1.0 150:1.0 151:0.0 152:0.0 153:0.0 154:0.0 155:1.0 156:1.0 157:1.0 158:1.0 159:1.0 160:0.0 161:1.0 162:1.0 163:1.0 164:1.0 165:1.0 166:0.0 167:0.0 168:0.0 169:0.0 170:1.0 171:1.0 172:1.0 173:1.0 174:1.0 175:0.0 176:0.0 177:1.0 178:1.0 179:1.0 180:1.0 181:1.0 182:1.0 183:0.0 184:0.0 185:1.0 186:1.0 187:1.0 188:1.0 189:1.0 190:1.0 191:0.0 192:0.0 193:1.0 194:1.0 195:1.0 196:1.0 197:1.0 198:1.0 199:1.0 200:1.0 201:1.0 202:1.0 203:1.0 204:1.0 205:0.0 206:0.0 207:0.0 208:0.0 209:0.0 210:0.0 211:0.0 212:0.0 213:0.0 214:0.0 215:0.0 216:0.0 217:0.0 218:0.0 219:0.0 220:0.0 221:0.0 222:0.0 223:0.0 224:0.0 225:0.0 226:0.0 227:0.0 228:0.0 229:0.0 230:0.0 231:0.0 232:0.0 233:0.0 234:0.0 235:0.0 236:0.0 237:0.0 238:0.0 239:0.0 240:0.0 241:0.0 242:0.0 243:0.0 244:0.0 245:0.0 246:0.0 247:0.0 248:0.0 249:0.0 250:0.0 251:0.0 252:0.0 253:0.0 254:0.0 255:0.0 256:0.0 
-0.02787791461403229 0.021378538097376765 0.034520764585630165 0.03429703126091692 0.012293573563033545 0.04197405075477509 0.02558552207753953 0.02408226013318023 0.01925478240346803 0.02148405559499252 0.02656937239321265 0.03323781226476281 0.025659415385117453 0.02456843010135815 0.019030479038667926 0.02509048606576546 0.009204166100008035 0.04820484087020215 0.023631104492236817 0.018987582060551355 0.02421226157494088 0.023950418704458215 0.02235726518899633 0.008944173751117576 0.013785335460603431 0.014157264270090803 0.04863112834976177 0.029102344328992516 0.006091706387101039 0.008012086750354655 0.00824082646524056 1:0.0 2:0.0 3:1.0 4:1.0 5:1.0 6:1.0 7:0.0 8:0.0 9:0.0 10:0.0 11:0.0 12:0.0 13:0.0 14:0.0 15:0.0 16:0.0 17:0.0 18:1.0 19:1.0 20:1.0 21:1.0 22:1.0 23:0.0 24:0.0 25:0.0 26:0.0 27:0.0 28:0.0 29:0.0 30:0.0 31:0.0 32:0.0 33:0.0 34:1.0 35:1.0 36:1.0 37:1.0 38:0.0 39:0.0 40:0.0 41:0.0 42:0.0 43:0.0 44:0.0 45:0.0 46:0.0 47:0.0 48:0.0 49:0.0 50:1.0 51:1.0 52:1.0 53:1.0 54:1.0 55:0.0 56:1.0 57:1.0 58:1.0 59:1.0 60:0.0 61:0.0 62:0.0 63:0.0 64:0.0 65:1.0 66:1.0 67:1.0 68:1.0 69:1.0 70:1.0 71:1.0 72:1.0 73:1.0 74:1.0 75:1.0 76:1.0 77:0.0 78:0.0 79:0.0 80:0.0 81:1.0 82:1.0 83:1.0 84:1.0 85:1.0 86:0.0 87:0.0 88:0.0 89:1.0 90:1.0 91:1.0 92:1.0 93:1.0 94:0.0 95:0.0 96:0.0 97:1.0 98:1.0 99:1.0 100:1.0 101:0.0 102:0.0 103:0.0 104:0.0 105:1.0 106:1.0 107:1.0 108:1.0 109:1.0 110:0.0 111:0.0 112:0.0 113:1.0 114:1.0 115:1.0 116:0.0 117:0.0 118:0.0 119:0.0 120:0.0 121:1.0 122:1.0 123:1.0 124:1.0 125:1.0 126:0.0 127:0.0 128:0.0 129:1.0 130:1.0 131:1.0 132:0.0 133:0.0 134:0.0 135:0.0 136:0.0 137:1.0 138:1.0 139:1.0 140:1.0 141:1.0 142:0.0 143:0.0 144:0.0 145:1.0 146:1.0 147:1.0 148:0.0 149:0.0 150:0.0 151:0.0 152:0.0 153:1.0 154:1.0 155:1.0 156:1.0 157:0.0 158:0.0 159:0.0 160:0.0 161:1.0 162:1.0 163:1.0 164:0.0 165:0.0 166:0.0 167:0.0 168:1.0 169:1.0 170:1.0 171:1.0 172:0.0 173:0.0 174:0.0 175:0.0 176:0.0 177:1.0 178:1.0 179:1.0 180:0.0 181:0.0 182:0.0 183:1.0 184:1.0 185:1.0 186:1.0 187:1.0 188:0.0 189:0.0 190:0.0 191:0.0 192:0.0 193:1.0 194:1.0 195:1.0 196:1.0 197:1.0 198:1.0 199:1.0 200:1.0 201:1.0 202:0.0 203:0.0 204:0.0 205:0.0 206:0.0 207:0.0 208:0.0 209:0.0 210:0.0 211:0.0 212:0.0 213:0.0 214:0.0 215:0.0 216:0.0 217:0.0 218:0.0 219:0.0 220:0.0 221:0.0 222:1.0 223:0.0 224:0.0 225:0.0 226:0.0 227:0.0 228:0.0 229:0.0 230:0.0 231:0.0 232:0.0 233:0.0 234:0.0 235:0.0 236:0.0 237:0.0 238:1.0 239:1.0 240:0.0 241:0.0 242:0.0 243:0.0 244:0.0 245:0.0 246:0.0 247:0.0 248:0.0 249:0.0 250:0.0 251:0.0 252:0.0 253:0.0 254:0.0 255:0.0 256:0.0 
